39 100
and 0.141458 0.17669 0.0637795 -0.213258 -0.1345 0.154703 -0.0665526 0.191512 0.168255 0.147816 -0.106987 0.0272666 0.209142 -0.0790056 0.22207 -0.18304 -0.0868671 -0.137255 -0.144331 0.0390442 0.136346 -0.0613528 -0.158083 0.105008 -0.195866 0.00515734 -0.19195 -0.154472 -0.137792 0.121292 0.146046 0.193514 -0.121779 -0.18431 0.204674 -0.164513 0.0407608 -0.149588 0.0460809 -0.114038 -0.179132 -0.125783 0.0788608 0.0947401 -0.0273993 -0.110632 0.0352132 0.180699 0.0805053 0.165123 0.191887 -0.14871 -0.0140508 0.181302 0.00228195 -0.114235 0.0310451 0.0701517 0.128029 0.168004 0.0842066 0.00356013 -0.10846 -0.0947978 0.170735 -0.0925679 0.0462301 0.0685015 0.10288 0.00750413 -0.171876 -0.191934 0.116531 0.123773 -0.15662 -0.00359796 -0.175795 -0.045844 -0.00262833 -0.0481145 -0.00506793 0.140283 -0.217925 0.122725 0.0143783 -0.145898 -0.0117601 0.0663023 0.00504047 0.0211305 0.0344094 -0.0802427 -0.00413329 0.0389806 0.04215 -0.116922 -0.134008 -0.192392 -0.0348133 0.033324
give 0.149181 0.0986682 -0.0333299 0.141197 -0.177754 0.126899 0.126453 -0.112385 0.0392924 0.210142 -0.231036 -0.161855 0.0833454 0.216311 0.118553 -0.0930023 0.0808659 -0.0304668 0.124814 -0.0538413 0.0541472 0.127648 0.118045 0.0222513 -0.140518 0.0429139 0.20259 0.0863784 -0.174197 0.0934609 0.189477 -0.108005 0.023259 -0.0871873 0.150722 -0.217908 0.00625707 -0.0659558 0.176047 -0.218348 -0.0867483 0.0271083 -0.126529 -0.000882273 -0.180023 0.0965427 0.203761 -0.186884 0.134669 0.0786782 -0.0431781 0.0714861 0.153249 0.187212 -0.0224046 0.0173639 -0.078729 -0.1309 -0.0105115 -0.061297 -0.121645 0.0441854 0.102741 -0.12697 -0.040973 0.13746 0.141498 0.129565 -0.0673043 0.146481 -0.108438 -0.0695795 0.187146 0.174029 0.068703 0.126817 -0.194279 0.180471 -0.0775718 -0.205247 0.135863 0.069179 -0.156755 0.0195157 -0.0609048 0.121134 0.0802692 -0.0526169 -0.0169869 0.0631139 -0.230197 0.165097 0.141479 0.16388 -0.204662 -0.0467929 -0.191921 0.108147 -0.121271 -0.0890663
almost 0.224504 0.0378823 -0.201405 0.163311 -0.0706932 -0.0690428 -0.0232069 -0.178292 0.208619 0.0606755 0.0550048 -0.155653 -0.173224 -0.106015 -0.0821959 -0.0507935 -0.0520011 0.0482087 -0.218165 0.0937149 -0.0697804 -0.0436045 0.0874383 -0.134342 -0.083282 0.0833629 -0.0831088 -0.16462 0.0373589 -0.0765922 -0.191624 -0.160882 0.152889 0.0457899 0.0799637 -0.0638212 0.230107 0.203086 0.180335 -0.158928 -0.100237 0.0604694 0.101872 -0.0304826 -0.149301 0.0910481 0.0726734 -0.033305 -0.184906 -0.0635452 -0.165722 -0.0660324 0.0148077 -0.119196 -0.13383 -0.0161325 -0.0733011 0.134997 0.161 0.0840494 0.119924 0.0283315 0.00806544 -0.054709 -0.0125615 -0.0538628 -0.0981818 0.0791448 -0.0946466 -0.124159 0.0470508 -0.043861 0.0325586 -0.00706677 0.176738 0.21126 -0.204102 -0.166263 0.0260269 0.0605698 -0.101539 -0.137173 -0.0976136 -0.134783 -0.007369 -0.12305 -0.188945 0.195845 -0.134929 0.069357 -0.0647219 0.105647 -0.0244177 -0.174778 0.113941 -0.0533665 -0.136257 0.160097 0.0870342 0.0316848
lewis -0.0830321 0.0365693 -0.205955 0.0079538 -0.0676762 -0.184793 -0.0279569 0.0915551 -0.0613282 0.00724239 -0.135546 -0.142881 0.0694125 0.101495 -0.161148 -0.139006 0.20271 0.0277274 -0.150856 -0.147063 -0.0647809 -0.0412432 0.0316231 -0.00776632 -0.071615 0.147684 -0.0903604 0.00420286 -0.186903 -0.115483 0.159223 0.215508 0.00813306 0.111563 -0.101996 0.079034 -0.179983 -0.0717405 0.0716462 0.176756 0.147892 0.172451 -0.0561094 0.0251895 -0.0004792 0.105528 0.162122 -0.118336 0.028734 0.0204042 0.109061 -0.178479 0.0281368 0.127672 -0.11585 0.0433548 0.101521 -0.110583 -0.0721457 -0.150657 -0.0630205 -0.0795381 -0.109166 -0.144761 0.00685033 0.111223 -0.186095 0.193411 0.162177 0.0166278 -0.184899 0.18815 0.179833 -0.0839875 -0.0265715 -0.0645364 -0.154406 0.119052 -0.118739 0.146198 0.133041 0.0624449 -0.153974 -0.0450538 0.0166135 -0.147063 -0.0985083 -0.0228664 0.190337 0.176887 0.0730805 0.084406 0.222424 -0.0111928 -0.134255 0.0302861 0.183527 -0.0371519 -0.138558 0.0039242
is -0.0350577 -0.0814943 0.153015 0.170165 -0.159308 -0.0971284 -0.0284574 -0.0955918 -0.196967 0.121221 -0.0267578 -0.126698 0.0376791 -0.143504 0.129071 0.175204 0.192229 0.00582779 0.0773264 -0.0995397 -0.18871 0.0811114 -0.158023 0.0950665 -0.168741 0.0351764 0.184176 0.121984 -0.15319 -0.212413 0.0748469 0.177079 0.157253 -0.130323 -0.0934995 0.0626334 0.237906 0.169409 -0.020274 0.00409072 -0.00473324 -0.0250787 0.176799 0.182926 -0.0369989 0.241075 -0.0210848 0.0729786 -0.170535 0.0497654 -0.1553 -0.0398317 -0.114026 0.0694134 -0.052915 -0.0483723 0.123225 -0.181373 0.184644 0.127516 -0.171375 -0.0885374 -0.186586 0.0188039 -0.051572 0.0888078 -0.164683 -0.158894 -0.0928517 -0.158059 -0.16801 0.0473229 -0.06238 -0.148658 0.0746867 -0.12432 0.167 0.219594 -0.147109 0.148533 0.159347 -0.0504183 0.0563599 0.12706 0.168012 0.213447 0.184285 -0.18425 -0.214154 0.182979 0.206335 0.0141824 0.050669 -0.184729 -0.00411704 -0.0164717 -0.0633043 0.032331 0.203872 0.0533112
carroll -0.161995 -0.176611 -0.156284 -0.0339341 0.0504831 0.0127258 -0.130955 -0.160944 -0.0531719 0.0295485 -0.0438185 0.0954425 0.00576466 0.126645 0.122633 0.0591818 0.0869835 -0.076739 0.183359 -0.0170403 -0.185322 -0.213175 -0.174053 -0.103831 -0.036391 -0.104286 -0.0952476 0.0744621 0.0529535 0.0998362 0.00490446 -0.10834 0.201134 -0.119755 -0.0858008 0.185012 0.143491 0.0444689 0.142433 -0.122532 -0.154232 -0.0221178 -0.132983 0.118793 0.177887 -0.0760706 0.00208444 -0.0760721 0.0584449 0.205782 0.170451 -0.123809 0.0774831 0.183733 -0.109088 0.014857 0.0692059 -0.196672 0.0587299 -0.184527 -0.2092 0.174957 0.0575037 -0.0506815 0.199724 0.00676413 -0.102134 0.14172 -0.12574 -0.0720701 0.112399 0.0310618 -0.109521 0.0613752 0.0713764 0.0710853 -0.107663 0.0296703 -0.010593 -0.0716593 -0.160198 -0.138184 0.0144253 -0.115425 0.0700328 0.0495642 0.0983707 0.0806127 0.034275 0.164697 0.057646 -0.0193921 -0.112895 -0.199385 -0.00693524 0.00560602 0.0263424 0.113251 0.0863815 -0.0201677
it 0.0742157 0.175813 -0.0486687 -0.116317 0.189428 -0.163737 0.0926254 -0.167995 -0.142875 -0.181624 0.122433 -0.114235 -0.16048 -0.0511187 -0.0981576 -0.223921 -0.132586 0.0906626 0.0678007 -0.136598 0.0615458 0.140995 -0.00251299 -0.0064066 -0.240677 0.109724 0.164099 -0.145767 -0.0827999 0.159626 0.0807709 -0.0899729 -0.1319 -0.228131 0.0779201 0.124227 0.12417 0.0902295 -0.0760268 0.117442 -0.11449 0.0334337 0.134746 -0.227315 -0.0888937 -0.0946133 -0.062952 -0.125882 -0.106421 -0.165186 0.126286 -0.228126 0.0089827 -0.17945 0.0144525 -0.135765 -0.084073 -0.0164339 -0.195248 -0.201213 0.0750063 -0.0211766 -0.09187 0.144967 0.153657 0.153306 0.112468 -0.199357 0.151946 -0.0262787 0.175642 0.0461171 -0.124728 0.170212 -0.116332 0.0779585 -0.0446917 -0.116483 -0.140811 0.0975375 -0.0163022 -0.012882 0.180946 -0.0685108 -0.140791 -0.0309958 0.120663 0.184906 -0.142991 -0.0934042 -0.144378 -0.13455 -0.0926513 0.0919086 -0.203164 0.172822 0.120571 0.148901 -0.10437 -0.126512
adventures 0.179729 -0.129459 0.1722 0.143166 -0.0108114 0.0963523 -0.0847764 0.158265 0.0170475 -0.0432259 -0.117437 0.145595 0.0634214 0.0445746 0.124945 -0.177579 -0.0745452 0.168956 0.126506 -0.0960715 -0.0685295 -0.113366 0.181894 -0.162609 -0.133696 -0.0877265 -0.134572 0.166885 -0.141951 -0.214364 -0.0327402 -0.0934325 0.0217407 -0.0987612 0.0338587 0.166307 -0.0729941 0.015739 0.157389 -0.116218 -0.00718679 -0.137924 -0.0302117 -0.0373846 -0.0612023 0.0224621 -0.000679407 -0.00926513 -0.00667833 0.0388117 -0.0937112 0.0512696 0.0386218 0.0351883 -0.0702995 0.214879 0.030335 -0.226173 0.0833704 0.114102 -0.209747 -0.0168711 0.0183393 0.0117413 -0.0331903 0.120076 -0.072904 -0.0538455 0.192673 0.151251 -0.210866 0.191047 -0.214942 -0.0320565 -0.0350692 -0.123967 -0.196179 0.107159 -0.103514 0.0395701 -0.181217 -0.00236022 0.116211 -0.141031 -0.0958164 0.00421037 -0.183087 0.0543522 0.143633 0.0366436 0.017391 0.00916587 -0.141646 0.116814 0.183015 -0.146311 0.0888524 -0.194038 -0.102595 0.160188
cost -0.120956 -0.145664 0.100492 0.170916 0.0392754 0.0564065 0.126465 0.148759 0.214386 -0.10887 -0.219156 -0.153873 -0.170888 -0.189818 0.178223 0.0260916 0.119415 -0.129144 -0.0110046 -0.190515 -0.0666575 -0.0362119 0.0358777 0.12711 -0.00927629 0.162458 0.0974888 -0.128462 -0.0893493 0.093083 -0.0324107 -0.0750649 -0.0962679 -0.00574722 0.0759323 -0.12223 0.0540018 0.0474424 0.184366 -0.0993862 -0.148256 -0.02427 0.118969 -0.086803 -0.0921677 -0.108431 0.171254 0.181871 -0.205427 0.0128927 -0.0257672 -0.161787 0.049048 0.119745 -0.202274 -0.100602 0.0570975 -0.130356 0.114486 -0.108975 0.133441 0.16794 -0.123065 -0.0126798 0.0830213 -0.162611 -0.136641 0.101407 -0.163074 0.062063 -0.0798144 -0.149839 0.0035283 -0.0658354 0.186724 -0.202767 -0.176857 0.104626 -0.00214078 -0.195227 0.0743805 -0.0957721 -0.158962 -0.0944079 -0.0416986 0.109877 0.030884 -0.0282864 0.187218 -0.17685 -0.113061 -0.0674074 0.14733 -0.0417166 -0.12834 0.0523003 0.0612852 -0.0162136 0.110197 0.0506226
at 0.118385 0.201641 -0.0505969 -0.184051 0.00605734 0.0999193 0.171795 0.11043 -0.00760389 0.1822 0.19268 0.186166 -0.0858932 0.12092 0.0599251 -0.153228 -0.178913 0.070393 -0.168862 0.00864221 0.149593 0.204264 0.154609 0.0219392 -0.00467042 -0.0405163 -0.142127 -0.0730395 0.0893955 0.039273 -0.109155 0.1761 0.173671 0.173328 0.102858 0.0337845 0.214931 0.0986608 0.126281 -0.177064 0.0569218 -0.0740379 -0.119917 -0.0747923 -0.135506 0.0637487 -0.212911 0.20158 0.144767 0.0943187 0.212136 0.216707 -0.0674952 0.0232324 0.1727 -0.0950338 -0.177673 -0.024378 -0.0762624 -0.155371 0.210976 -0.138353 0.161899 0.108325 0.125258 -0.147719 0.109327 0.0657996 0.0182246 -0.0295139 0.0761564 -0.138336 -0.0617712 0.184463 0.241304 0.0487388 -0.196207 -0.0540318 -0.147204 0.164696 -0.140638 -0.147474 0.173055 -0.118009 0.00673896 0.107382 0.1211 0.0445205 0.108994 -0.152621 0.158022 -0.0968753 0.0783665 0.224462 -0.235905 0.183666 0.0768381 0.0148858 0.112716 -0.102597
in 0.178028 -0.0593932 0.116945 -0.182668 -0.177525 0.171974 0.094207 -0.0914255 0.00269533 -0.0100613 0.0258976 0.161246 0.104325 -0.0487496 -0.123787 0.0100664 0.0386019 -0.15366 0.230347 -0.104229 -0.15432 -0.0319082 -0.0472364 -0.102428 0.0845774 0.0908305 0.0365139 0.177812 -0.134313 0.129957 -0.000281247 0.0236686 0.0944374 0.0521833 -0.098214 0.0503827 0.0449227 0.195348 -0.0644753 -0.129325 0.132029 -0.103117 0.132084 -0.129471 0.0851528 0.00492162 0.166809 -0.212055 -0.0388364 -0.0803514 -0.106752 -0.0524779 0.114449 0.0484699 0.0416577 -0.140233 0.162459 -0.107178 0.183813 -0.176991 -0.0246062 -0.00778231 -0.0863985 -0.156737 -0.0946386 -0.164084 -0.141068 0.196161 0.117759 0.234011 0.205349 -0.0995157 -0.106128 -0.0116573 0.0471051 0.188952 0.154926 -0.188593 -0.0971181 -0.124252 -0.0834 0.0103324 0.203493 -0.053997 -0.234588 -0.0538072 -0.0487219 -0.107037 -0.0589989 -0.0705474 0.189722 -0.0320309 0.0534835 -0.0269672 -0.026443 -0.219698 -0.132216 -0.132701 -0.0537315 0.153774
wonderland 0.197093 -0.0323928 0.063857 -0.00452158 0.0251942 -0.202997 -0.0684318 0.0990869 -0.213253 0.168511 0.022076 -0.0333988 -0.0132027 0.202349 0.0487097 0.152678 0.00507252 0.0311697 0.158626 -0.186926 0.12438 0.00804421 0.14688 -0.0803112 -0.0906226 0.104445 -0.0511944 -0.0170569 -0.0604619 -0.0897841 -0.120948 0.0984729 -0.018516 0.0994092 -0.136524 -0.0364776 0.148463 -0.179959 -0.17637 0.031898 0.160412 -0.0550012 -0.170086 -0.0179102 0.0460553 -0.150589 -0.179208 0.151898 0.0145067 0.0807469 -0.213658 0.0466257 0.0183334 0.157098 -0.123456 -0.137584 -0.0966067 -0.0521402 -0.198535 -0.0565046 0.167273 0.0840686 -0.213443 0.0661308 0.0194606 -0.130477 -0.0639502 0.028944 -0.18224 0.099667 -0.213598 0.092806 0.055013 0.0325971 -0.0809114 0.136732 -0.176412 0.0877773 -0.0989589 -0.161482 -0.123708 0.177355 0.0276129 -0.169593 -0.0384188 -0.0854398 -0.070535 -0.223863 -0.0420222 0.145272 -0.175653 -0.0415298 -0.0709877 -0.0941733 -0.160702 -0.131756 -0.0650017 -0.0640558 -0.194339 -0.100473
use 0.120421 -0.0229506 0.087158 -0.065744 -0.131526 -0.0709853 -0.0355639 0.0479835 -0.248302 -0.051075 -0.0504396 0.0943134 0.198395 0.140447 0.256996 -0.0806254 -0.128655 0.220783 0.110251 0.139843 -0.101388 -0.0117957 -0.133785 -0.00995816 0.0814245 0.0509966 0.110047 -0.0195675 -0.0833172 0.00584721 0.115426 -0.155974 -0.144543 -0.185684 -0.137342 -0.014657 -0.103645 0.185363 -0.137877 -0.101942 -0.221838 -0.208619 0.181721 0.127216 -0.211916 0.128961 -0.0184082 -0.111242 0.177604 -0.187926 -0.185261 0.129369 0.0819707 -0.238057 0.026691 -0.0492119 0.175896 0.00557599 0.0395643 -0.00978911 -0.234523 -0.0436625 -0.0425014 0.0214493 -0.0190516 0.167478 -0.152552 -0.209686 -0.0142771 -0.221212 0.104823 -0.111901 -0.0497255 0.039328 0.151931 0.0971109 -0.0235612 -0.0791592 0.202437 0.0550611 0.20383 -0.180031 0.146701 0.115475 -0.107982 0.19837 0.233964 -0.131884 -0.0964957 -0.209152 -0.0255389 0.154393 0.0301114 -0.107946 0.149042 -0.105266 -0.0563609 -0.015321 -0.0402725 0.0285333
for 0.0196646 -0.0509994 0.0682194 -0.0830309 0.103787 0.111838 0.0925627 0.0135466 0.206305 0.1281 -0.129703 0.235392 0.0935731 -0.0607752 -0.00457824 0.0555743 -0.0150956 -0.144288 -0.156418 0.053087 0.0578857 -0.0593499 -0.1474 -0.0682762 -0.104027 0.0955007 -0.0178117 0.0857824 -0.167617 0.00738277 0.186105 -0.105878 -0.092609 0.166976 0.187204 -0.115444 0.0375119 -0.0277473 0.121007 0.122547 0.249865 0.0177709 0.0350079 -0.138979 0.219368 0.191677 -0.149996 0.207561 0.0243715 0.0706005 -0.0981791 -0.0083288 0.151256 -0.142385 -0.0112627 -0.0390894 -0.0991056 0.0591617 -0.213279 0.139564 -0.196913 0.0472523 -0.0677914 0.159634 -0.196364 -0.000175384 -0.0437994 0.0922034 0.00197123 0.046868 0.158408 0.0193509 0.237319 -0.0897481 0.189221 0.0412658 -0.0216936 -0.156234 0.247035 0.146867 0.0856179 -0.240825 0.107454 0.0817482 -0.0989167 0.0741451 0.104557 0.107226 -0.190191 -0.103642 -0.0469402 -0.0677902 0.0622864 0.0103685 -0.155694 0.216811 -0.180122 0.0533217 -0.0399609 -0.195924
no 0.0682712 0.20821 0.211881 0.0748565 0.207398 -0.0279781 -0.0143493 0.159999 0.179956 -0.034124 -0.0833985 -0.166792 0.10439 0.00272753 0.0624435 0.0210376 0.0474344 0.147 -0.1143 -0.213995 0.185897 -0.10815 0.139181 0.0912865 0.0544079 -0.148712 0.165928 -0.00112518 0.0380439 0.239398 -0.0348266 0.0071814 -0.0950664 0.0546277 0.24144 0.0546838 0.190432 0.145038 0.189802 -0.119514 -0.120844 -0.053603 -0.172821 -0.133464 0.0608179 0.0756779 0.0415078 0.149603 0.0727975 0.14534 -0.227267 -0.155828 -0.135163 0.11684 -0.0509104 -0.0518801 -0.155686 -0.00759039 -0.129659 0.0724153 -0.120897 0.0185806 0.202621 0.0293255 -0.227059 -0.0763906 -0.0409187 0.15107 -0.135941 0.216053 0.0160439 0.1303 -0.0483645 0.245095 -0.000272095 -0.106629 0.099299 0.111629 0.0713247 -0.0922747 -0.100179 -0.00580116 0.0907413 -0.0933553 0.0720865 -0.0625187 0.109609 0.125604 0.16687 -0.0489287 -0.121067 0.139644 -0.113325 0.0228938 -0.033454 -0.145691 0.261568 0.152842 0.0964599 0.0602655
away 0.174696 -0.118815 0.00705899 -0.13499 0.128279 0.0555747 -0.145448 -0.0523235 -0.190706 -0.00456195 -0.182207 -0.0625913 -0.169631 0.0308012 -0.0863231 0.173506 0.0753081 -0.0535423 0.0141094 0.17462 -0.191628 0.130628 0.212646 -0.0295838 -0.0528932 -0.0365593 0.118845 0.0910771 0.0826508 -0.150052 0.0513223 -0.164309 -0.174017 0.0398794 0.114746 -0.110707 -0.0736146 -0.0494493 -0.0265808 -0.0785415 0.0286967 0.119468 0.115675 0.0867573 0.103831 -0.00905906 0.0161929 -0.100374 0.0148965 0.100627 0.0842965 0.0487567 -0.129793 0.0245245 0.0541872 -0.167731 0.0645995 0.195376 -0.00749009 0.0575816 -0.0203887 -0.0789064 0.217599 -0.00519324 0.00929591 0.0190607 0.0237821 0.0279719 0.078927 0.133526 -0.00866099 -0.14406 0.0153186 0.0505166 -0.000557883 0.164728 0.146054 -0.18386 0.19173 -0.0988352 -0.087398 -0.21142 0.0470352 0.0788476 -0.0602649 0.0664325 0.218812 -0.0964792 0.00730246 -0.223152 0.0953076 -0.10419 0.0278295 0.00677316 0.105701 0.174693 0.0328181 0.206731 -0.0432434 -0.153414
anyone 0.140596 -0.162313 0.000821676 0.00344017 0.162924 -0.0483568 -0.00377307 -0.0151603 0.0883149 -0.133016 -0.101107 -0.0917438 0.0549223 -0.022368 0.0197359 -0.159775 0.159244 -0.166856 -0.139401 0.0774777 -0.0634774 -0.201203 -0.00151211 0.150299 -0.180844 0.17735 -0.128119 -0.0447166 0.0077763 0.122483 0.139852 -0.064977 -0.0244014 0.0698645 -0.11816 0.0914614 0.138819 0.0976228 0.133683 -0.0853341 0.083744 -0.0847169 0.0576244 -0.0596011 0.0900522 -0.079321 -0.0832379 0.0598343 -0.2144 0.150649 0.114019 -0.169589 -0.0053093 -0.162523 -0.0259248 0.113353 -0.0964342 -0.0147341 0.0401067 -0.151852 -0.0953761 0.0143581 0.159522 0.165749 0.0560297 -0.111555 -0.045141 -0.104534 -0.107207 -0.128529 0.179925 -0.126202 0.171214 -0.0756704 0.163736 -0.221065 -0.0976447 0.0174268 -0.116724 0.135502 -0.0816009 0.0620037 0.0567469 -0.0276186 -0.156359 0.200854 -0.180043 -0.180539 0.156253 0.0570174 0.202479 0.154365 -0.158432 0.145263 0.0773778 0.0681171 -0.0986367 -0.141683 0.11277 -0.213544
re 0.0962465 -0.0482063 0.137775 0.0968525 0.222111 0.121559 -0.104888 -0.139059 -0.0211141 -0.237803 -0.0534453 -0.00764805 0.129998 0.2238 0.0108075 0.168966 -0.0759866 0.14516 0.0280039 -0.193041 0.12899 -0.21997 0.133666 -0.144302 0.209281 -0.0928011 -0.173678 0.0704398 -0.12328 0.18162 -0.0612479 -0.10502 0.157747 0.0987397 0.143054 -0.0120775 -0.14512 -0.130437 0.111581 0.0704402 0.173467 0.0677385 0.237402 0.00500587 0.166799 0.00856276 0.0859235 0.221658 -0.125637 -0.0870413 -0.169973 -0.0325467 -0.0644465 0.132807 -0.0461515 0.151521 -0.0906799 -0.0590538 0.0202696 -0.228736 0.0314964 -0.0981466 0.161043 0.12263 0.181286 0.0391243 -0.0652985 0.017822 0.0755561 -0.0519254 0.0645857 0.236184 0.0954335 -0.16313 0.0844338 0.145955 -0.223809 -0.0955933 0.0673534 -0.0182694 -0.0172523 -0.0824187 0.0649628 0.0910651 0.106151 -0.0484293 0.235422 0.198028 -0.196524 -0.164418 -0.117995 -0.124293 -0.209155 -0.0282247 -0.208387 0.0307125 -0.099066 -0.114517 -0.0726656 0.0695362
whatsoever 0.0898743 -0.16418 0.0305555 -0.030449 0.000648522 0.0818197 0.00276025 -0.0614082 -0.202224 0.0725931 -0.108499 0.0421721 0.0629078 -0.149484 -0.0614198 0.112104 0.0151778 0.235991 -0.211499 0.0455022 -0.0107025 -0.250374 -0.19095 0.0234557 0.168319 -0.123595 -0.0725489 0.175163 -0.00198987 0.00613896 -0.0956302 -0.0759326 0.170228 -0.0377895 0.17946 0.111898 -0.116005 0.211469 -0.159739 -0.0130363 0.0493987 0.108142 -0.0698535 -0.209806 0.121425 0.038772 0.14194 0.129 0.135768 -0.119513 0.168987 -0.152045 0.18728 -0.0798184 -0.173524 0.0294291 0.173479 -0.0922572 -0.148203 0.145941 0.209321 -0.0685797 0.0742607 -0.0598893 0.129618 0.197563 0.0262408 0.195293 -0.0313216 0.0449226 -0.194424 0.0459619 0.0135878 -0.0242832 -0.0588966 0.186075 -0.218767 -0.175607 0.068191 0.0231856 0.164537 -0.0776253 -0.218752 -0.228866 -0.145156 0.0914444 0.0917146 -0.087199 0.0302556 -0.217283 0.00633646 -0.0941296 0.133988 0.143834 -0.182496 -0.150122 -0.143256 0.0961373 -0.00646666 -0.197234
under -0.197356 0.173597 0.109774 0.161445 0.104346 0.0981588 -0.103154 0.0464194 -0.137626 -0.125511 -0.232955 0.249876 -0.114171 0.172069 -0.0665462 -0.119994 -0.0164548 -0.135646 -0.0550911 0.00511323 -0.0740857 0.0522235 -0.0114581 -0.172075 0.169831 -0.207441 -0.16996 -0.19914 0.11963 0.0912005 0.0928534 0.225739 -0.0398232 0.114942 0.220222 -0.0346035 0.186383 0.16075 -0.0246554 -0.0122623 -0.125369 -0.0093387 -0.0142676 -0.027303 0.177834 0.220709 0.102998 0.131133 0.146419 0.0832464 0.0479616 -0.134958 -0.157527 0.0225403 0.173355 -0.143538 -0.0530303 0.0886551 0.122502 -0.10472 -0.24182 0.0569864 0.182675 -0.0214447 -0.114472 -0.0381859 -0.0817671 -0.0963927 -0.0711907 -0.20774 0.129268 0.11602 0.0202939 -0.131769 -0.106911 -0.237098 0.146671 0.0157585 0.0448748 0.181802 0.224324 -0.188808 0.0266959 -0.160049 -0.0792731 -0.0264657 -0.104638 0.169339 0.0739482 -0.131682 0.00263037 -0.0140578 0.0567229 0.0323347 -0.223564 0.0229823 0.0954597 0.236033 0.0250075 0.00716829
you -0.246773 -0.166881 -0.0226553 -0.123642 0.225982 0.0702253 0.0566472 -0.0610646 0.194285 0.0934077 0.165459 0.112909 0.116552 0.117846 -0.00089396 0.133454 -0.014974 0.12947 -0.132305 -0.168852 0.138889 0.0714961 -0.155098 -0.0653321 0.233358 -0.0267073 0.161555 0.242547 0.194704 -0.198619 0.0599943 0.0167244 0.0197227 -0.240808 0.0838244 -0.159797 -0.010229 0.241695 -0.191387 -0.0117272 -0.0779858 0.215478 -0.164053 -0.105734 0.0504691 0.123695 0.21655 0.0383806 -0.178272 0.112199 -0.114242 0.0990807 0.176206 -0.114293 -0.11918 0.000948059 -0.186552 0.192299 0.147925 -0.0713831 -0.228925 0.027709 0.0141718 0.0962955 -0.124127 0.0738699 -0.0075927 -0.0146436 -0.0704074 0.0154089 0.0796014 0.0550317 -0.175939 -0.132343 -0.213802 0.130625 -0.147504 0.140085 0.0501378 0.090065 -0.154556 -0.0967614 -0.02421 0.198449 0.0379351 0.0732144 0.15651 0.0123641 -0.132627 0.16621 0.0298922 -0.146913 0.0288105 -0.0332697 0.0627812 -0.0312595 0.00793281 -0.00151775 0.0608322 -0.0814867
terms 0.0340825 -0.0517933 -0.127711 0.218695 -0.181746 0.221185 0.215949 0.0911002 -0.234312 0.118492 0.141305 -0.148051 -0.167633 -0.073031 0.219146 0.0246868 -0.00400545 -0.161058 0.071463 0.0892576 0.109541 -0.0232575 0.113958 0.128403 -0.0246423 0.106639 0.13343 0.0869632 -0.0557141 -0.125374 -0.0613901 -0.0381384 -0.0399911 -0.230295 0.173703 -0.0570574 0.117419 -0.174187 0.174508 -0.143319 -0.117156 0.126762 0.100405 0.0327506 0.0209287 0.0613551 -0.182958 0.162296 0.129555 -0.0137827 -0.0354982 -0.0918598 -0.0326613 0.101606 -0.0738575 -0.150194 -0.119449 -0.0750168 0.177721 -0.102773 0.135484 0.121124 -0.127284 0.254044 0.208689 -0.232901 0.226561 0.141265 0.0784379 0.00564496 -0.213862 0.0444154 0.0603237 -0.0302216 0.188599 0.143842 0.23288 0.0450236 0.110675 0.175138 -0.133745 -0.182836 0.221654 -0.0928064 -0.0943679 0.0613521 0.124133 0.159661 0.020615 0.0295619 -0.0103911 -0.218921 -0.146565 0.168557 -0.10135 0.0451126 0.122508 0.164857 -0.0645904 -0.0753693
may -0.00524166 0.172476 0.159337 -0.189666 0.0271881 0.137589 -0.00795531 -0.117828 0.117023 -0.140354 -0.128828 0.0286283 0.00658809 -0.125212 -0.0257517 0.0729847 -0.0504946 -0.0167403 0.134974 0.140453 -0.0142128 0.177782 -0.191085 0.170112 0.0291911 -0.071152 0.20473 -0.0293218 0.233434 -0.0144029 0.0934185 -0.0879298 0.11974 0.0848359 -0.130059 0.153346 -0.157027 0.225233 0.0514585 -0.155399 0.0755104 0.212782 -0.00960375 0.0262116 0.15607 0.153349 0.0979046 0.093394 0.172568 0.0858983 0.137627 -0.185512 0.0798391 -0.111866 0.0862447 -0.159059 -0.0261343 -0.12896 0.153226 0.0950886 0.051723 0.0268208 0.155304 -0.135508 0.161258 -0.0429646 -0.103421 0.0615972 0.117559 0.196241 0.154602 -0.109809 -0.138653 -0.113867 -0.000700922 0.110005 0.195064 -0.00847706 0.146835 0.0968288 -0.103651 0.0726216 0.15453 0.0316906 0.172449 0.0488144 0.127391 0.0582725 0.0360135 0.225394 0.0263348 -0.0283291 -0.0193468 0.142528 0.121523 -0.000132718 -0.0291758 -0.110082 0.0910176 -0.0310147
ebook -0.135044 0.0883979 0.0150797 0.16529 -0.243228 0.0666742 0.18793 -0.176859 0.0625954 0.020864 0.052444 0.00989749 -0.143515 -0.200801 -0.0973011 0.217497 -0.00671847 -0.0930626 -0.196913 0.0271432 0.172944 -0.0713538 0.15749 -0.107264 0.200935 -0.0599515 -0.202475 0.0241351 0.126131 0.176903 0.120769 0.0214811 0.134057 0.00387614 -0.0531437 0.0643021 -0.0206109 -0.0276322 -0.160445 0.0921073 -0.00287455 -0.116441 0.145124 -0.194924 -0.214648 -0.19114 0.155478 0.181454 -0.0241878 -0.0673777 0.0704448 -0.0939748 -0.0150541 -0.20872 -0.122665 0.100588 -0.096326 -0.091185 0.0602547 0.161567 -0.118305 0.137848 0.0428157 0.163135 0.00216307 0.0116922 0.128841 0.117191 0.111845 0.132706 -0.0441399 0.121541 -0.125538 0.215495 -0.153533 0.0546205 0.0869408 0.0123281 0.0658714 0.0439088 -0.153009 -0.128886 -0.0752205 0.061815 0.138884 0.112931 0.18826 -0.112708 0.0682078 -0.168071 0.20913 0.0675504 -0.0818219 -0.0506424 0.00133043 -0.11145 0.157692 -0.0372269 0.214132 -0.129193
gutenberg 0.0486821 -0.0721484 -0.117785 0.11912 -0.160253 0.0134527 0.16327 0.134589 -0.182989 -0.127904 -0.0794603 -0.156562 0.0586519 -0.16387 -0.16887 -0.186422 0.00926889 -0.041999 -0.0524275 0.0404485 -0.229863 -0.11957 0.21141 -0.0512725 -0.148755 -0.103611 0.220945 -0.0298945 -0.000358249 -0.171611 -0.0766846 0.00330932 0.0890236 -0.00690207 -0.253341 -0.0336844 -0.0303551 0.143903 0.165252 -0.0527976 -0.0369366 0.0360794 0.22337 -0.0919574 0.083991 0.105284 0.162577 -0.120947 0.0375842 -0.0430682 0.075022 0.0511792 0.154081 0.114718 -0.124835 0.0721088 -0.148541 0.0920886 -0.0430674 0.149779 0.152301 -0.0382206 0.0979314 0.236496 -0.00245171 -0.038852 0.0834238 0.128562 0.217013 -0.00335976 0.0824426 0.196606 -0.00484121 -0.124468 -0.178288 0.107997 0.134696 0.0180163 0.127521 0.161622 -0.0539378 -0.165001 -0.143767 -0.0212806 -0.0394391 -0.0716713 0.160513 0.215022 -0.150325 -0.149845 0.123274 -0.161828 0.187812 0.234787 -0.0710219 -0.125478 0.0279858 0.193169 0.0652261 -0.201874
included 0.166734 0.140605 -0.185661 -0.0925727 0.215944 0.0591372 -0.0169391 0.0375807 0.117708 -0.141616 0.143069 0.0778811 -0.0419048 0.184784 0.106505 -0.0532258 -0.168526 -0.168636 0.168357 -0.00329414 -0.0729262 -0.101776 0.071836 -0.0140254 0.0440203 0.060834 0.0223396 -0.0465908 -0.185801 0.147648 0.20007 0.0240192 -0.112874 0.107509 -0.197517 0.0286583 -0.0323111 -0.158794 -0.11956 0.033282 0.137907 -0.0912378 -0.104875 0.206216 0.157757 -0.0832347 0.0735051 0.164778 0.149238 0.129936 0.184027 0.00282285 -0.163761 0.0393516 -0.0906658 -0.0144892 -0.154305 -0.0265201 -0.0914389 0.0245372 -0.130439 -0.169528 -0.0669658 0.148138 0.184615 -0.196134 0.0373719 -0.0462601 -0.153646 -0.0351746 -0.0667708 -0.0162253 -0.149519 -0.0996126 0.0924191 -0.0636678 0.0138491 0.0273621 0.125029 0.170582 -0.0913126 -0.18662 0.0389498 -0.170009 -0.122667 0.107406 -0.0108513 0.0609463 -0.108946 0.0417658 0.116208 0.190448 0.132974 0.120756 0.101664 -0.0503322 -0.102039 0.00663914 0.0119351 -0.140094
copy -0.0331879 0.169377 0.0531281 0.0921249 -0.0638125 0.078622 0.0319169 -0.0446424 -0.204201 0.00656805 0.0908814 0.0176078 0.142691 -0.0844705 -0.0412731 -0.104075 -0.0810177 -0.165504 0.143789 -0.221148 -0.0155271 -0.207581 -0.0332877 -0.105658 0.171075 -0.137623 0.0604218 0.0117792 -0.0092306 -0.139259 -0.0362538 -0.101279 -0.152851 -0.080442 0.15337 0.103311 0.0255452 -0.123863 -0.0504409 0.100452 -0.0552758 -0.0212267 0.102937 0.0866847 -0.234903 -0.176079 0.237446 -0.108005 0.12536 0.127302 0.193193 0.0792655 0.056019 -0.0586206 0.00915234 -0.0254748 0.118515 -0.126078 -0.0321522 -0.205549 -0.141903 -0.160116 0.0201155 0.125832 0.0889692 -0.166806 -0.0514257 0.0300533 0.0922624 -0.0548397 -0.0405999 0.0302273 -0.0255631 0.139605 0.0876555 -0.0214472 -0.0524068 0.123803 0.0866398 -0.0752181 0.137657 0.087151 0.162107 0.186323 -0.14038 0.034693 -0.0085874 -0.071729 0.0858661 0.0748175 -0.178578 0.00290885 0.00669379 0.0207243 -0.150768 0.0471634 0.145796 0.0614527 -0.197402 0.181915
with 0.123737 -0.204623 -0.132649 -0.0913474 0.140493 0.0184874 -0.12292 0.0290435 -0.172022 0.178335 -0.176746 0.0575741 0.190403 -0.0150578 0.094021 0.0803076 0.00707889 0.0461304 0.163865 0.128632 0.122036 -0.18921 0.050893 0.00222608 -0.0530929 0.0904923 -0.0201939 0.161707 0.0444552 0.0982845 0.0444551 -0.0793317 0.00624631 0.0431944 0.037636 -0.0429518 -0.164029 -0.133487 0.0987449 -0.0811274 -0.185686 -0.0177191 -0.139776 -0.0142469 0.166544 -0.0962926 0.0864803 -0.0743678 -0.0374765 0.0350481 -0.0202512 0.160478 -0.0228334 -0.152611 -0.176028 0.0503613 -0.105878 -0.161592 -0.0310466 0.147759 0.177119 -0.175285 0.150334 0.094483 -0.109039 0.132046 -0.00199354 -0.118926 0.0747278 -0.151241 -0.0101198 -0.140889 0.150319 -0.0509367 0.108616 0.192609 -0.0339554 0.142963 0.09327 -0.187773 -0.175567 0.207166 0.0817333 0.0797157 -0.0265709 0.174974 0.122116 -0.185309 -0.0469898 0.05279 -0.01168 -0.133948 0.0465786 0.0217096 0.176031 0.149941 -0.0922376 -0.00817807 0.164839 -0.0667097
by -0.069514 -0.103133 -0.0226973 0.0860994 -0.119888 0.0674443 0.220201 0.0257157 -0.160965 0.167498 -0.0435258 -0.187881 -0.0633849 0.205532 -0.165556 -0.0449652 -0.109591 0.0601171 -0.11595 0.0427415 0.19132 -0.0763509 -0.200939 -0.213013 -0.0737958 0.0647634 -0.128045 -0.0631702 0.0784024 0.0020743 0.10773 -0.00387443 0.0234025 -0.00205173 0.0589212 0.19102 0.216329 0.00196482 0.135787 -0.147997 0.0323855 0.0850804 -0.133184 -0.0562054 0.0498324 -0.0592915 0.164375 0.107722 -0.0829834 -0.00218624 0.109522 -0.0146284 -0.0171978 -0.13142 -0.186279 0.143549 -0.100645 0.21119 0.0427265 -0.0692255 0.155234 -0.0934788 -0.121434 -0.136044 -0.0849396 0.0220653 -0.008486 0.0383539 -0.160474 0.146977 0.0932317 0.0960681 -0.155033 -0.134596 -0.128535 -0.104368 -0.12114 -0.136126 -0.175985 0.191094 0.0504979 -0.176619 0.0902594 0.059204 0.142173 0.0427215 -0.141597 -0.148644 0.227341 0.123758 -0.168412 0.0108265 0.198319 -0.164526 0.0517406 -0.0347031 -0.0442388 -0.0355119 -0.0502047 -0.201603
restrictions -0.122063 -0.0700052 -0.0371851 -0.205931 0.00592148 0.223188 -0.0927964 0.193634 0.100996 -0.153693 -0.180785 -0.0466104 0.181391 -0.169461 -0.14602 0.0711365 -0.152681 -0.0644112 0.102788 -0.0439318 0.0613817 -0.207443 -0.113631 0.112146 -0.0295388 0.139442 -0.0458851 0.0406009 -0.00338332 0.206389 -0.162415 0.0847504 0.0468663 -0.124562 0.00173356 0.0744765 0.122352 -0.0250508 0.00943243 -0.223258 0.0771347 0.19338 -0.128897 0.00522009 0.188146 0.138255 0.0439724 0.21874 -0.0419663 -0.00424537 0.0535902 0.0390129 -0.0385486 -0.095623 -0.149369 -0.0100855 0.160293 -0.055934 -0.155638 -0.022228 -0.0144509 -0.178762 0.0886636 0.159051 -0.173708 0.0940269 0.195701 -0.0250259 0.153703 0.0899911 0.0326398 0.170001 0.0320333 0.0284917 0.0876699 -0.0647077 0.186404 -0.0577426 0.181285 -0.0259312 0.191487 0.0700001 -0.148522 0.150081 0.161189 0.133792 0.0800836 0.035235 0.0291835 0.236576 -0.152304 -0.0515587 0.191553 0.0493537 0.0903451 0.166804 -0.0602738 0.0289627 -0.0889983 -0.192296
license 0.17256 0.0355176 -0.00430719 -0.136444 -0.0791133 -0.0286793 0.038781 -0.056214 0.0972473 0.0527534 -0.211254 0.115066 0.040542 -0.128441 0.172385 0.176191 -0.151969 -0.0274116 0.109623 -0.0642509 -0.0653053 -0.126086 -0.145851 -0.100183 -0.00131267 0.143281 0.0946349 0.214937 0.0348095 -0.0429753 -0.0699126 -0.0317102 -0.00220616 -0.00307284 -0.0862195 -0.0230441 -0.0213555 -0.00469975 0.181145 0.176771 -0.0592751 -0.0900577 0.159408 -0.0267004 -0.138992 0.0192513 -0.157307 0.0892528 -0.0147666 -0.0134635 0.144211 -0.0262334 0.108651 0.0564195 -0.118646 0.00389148 -0.0569669 -0.183127 0.0690853 -0.171283 -0.102404 0.183876 0.00546841 -0.144673 -0.0315965 0.0896767 0.102131 -0.0477225 0.0475903 -0.13794 0.124633 -0.153978 -0.160688 -0.117687 -0.0878213 -0.00111323 -0.0411838 0.132061 -0.045772 0.105305 0.167358 -0.0457551 0.0785582 0.154358 -0.0178718 0.101843 -0.0587042 0.203469 0.105056 -0.0936917 0.185904 -0.173318 0.171194 -0.0533304 -0.151295 0.205523 0.197766 -0.117486 0.194521 0.140829
this 0.220084 -0.0325704 0.166701 0.017092 -0.242369 -0.10741 0.102728 0.142052 -0.0430089 0.125067 -0.184006 0.117949 -0.14197 -0.0577331 -0.158185 -0.136886 -0.150692 -0.137471 0.186423 0.0160945 0.173536 -0.141651 0.188942 0.213512 0.107974 0.126059 0.1649 0.184945 0.0192415 -0.0126032 -0.16139 0.00109952 0.148319 -0.191595 -0.132852 0.116963 -0.0966426 0.113132 0.0459475 -0.0409826 -0.0279913 -0.0771096 -0.0194267 0.118795 0.142091 -0.168055 0.023778 0.11592 -0.117813 -0.140726 0.062903 -0.00297949 0.0624154 0.20758 -0.124542 0.0504567 0.150026 -0.0466857 -0.211477 -0.153468 0.22266 0.0970578 0.0611756 0.150404 0.041115 0.0854531 -0.211752 0.165799 -0.0988615 -0.110687 -0.0673379 -0.0982699 -0.183791 0.0878282 0.0167439 0.0253502 -0.132755 -0.138107 -0.0224274 -0.116558 -0.00753762 0.0438271 -0.059845 0.210721 0.133268 -0.0624256 0.129576 0.106899 -0.174423 0.045886 0.0150542 -0.18764 -0.156148 -0.119979 -0.18877 -0.0427595 -0.180658 -0.162844 0.141304 0.0687414
of 0.128005 -0.0558943 -0.0658002 0.10327 0.0769033 -0.115835 -0.104065 -0.192737 -0.0475471 0.0600667 0.143586 0.206256 -0.0738145 0.0470989 0.0136429 -0.160518 -0.0766593 -0.18465 -0.0472628 -0.0779739 0.0653704 0.156659 0.0154044 0.183945 -0.136529 -0.181749 -0.0663332 -0.0202001 -0.160183 0.147803 0.0235997 0.0627635 -0.187326 -0.0601801 -0.14521 0.0409711 0.10833 0.166693 0.265408 0.0209054 0.0245175 0.0057773 -0.0394017 0.0274188 -0.00227112 0.159506 0.10777 0.118109 -0.0764311 -0.147872 0.156183 0.056404 0.254196 0.0424734 -0.0591895 -0.0696453 0.0790291 -0.223375 0.243022 -0.152581 -0.138417 -0.157009 -0.0534004 -0.047177 -0.0602769 -0.26491 0.245051 -0.235556 -0.1772 -0.00934589 -0.00910059 0.0628714 0.112103 -0.151396 -0.0318857 -0.172595 -0.09048 0.0451133 -0.0710206 0.0774674 0.14466 -0.182765 0.0997234 0.112111 -0.208304 -0.139505 -0.0812726 -0.0223868 -0.0412919 -0.186654 0.0413654 -0.212322 0.0899723 0.16269 -0.0876539 -0.0654057 0.201227 0.0863869 -0.135027 -0.217554
alice 0.0145479 -0.20779 0.0971088 0.0583419 0.10028 -0.2031 0.166539 -0.178058 0.0705693 0.0572436 0.189611 0.14288 0.0807432 -0.013108 0.109898 -0.0206196 0.161286 0.169022 0.14236 0.161916 -0.158148 -0.0302994 0.124783 0.0773953 0.104116 -0.140159 -0.149877 0.153366 -0.114769 -0.0984148 0.139556 -0.111448 0.0203983 0.15048 -0.000233527 0.147716 -0.126874 -0.177787 0.220368 -0.0622291 -0.236911 -0.119715 -0.088929 0.0450027 -0.140138 -0.209969 0.0869153 0.0751645 0.143455 -0.0498339 -0.0837508 -0.0250178 0.130871 -0.0752072 0.132534 0.181579 -0.0907631 -0.0979035 0.024844 0.0204397 -0.0265017 -0.131508 0.0436175 0.177368 0.0228071 0.0037417 -0.0615471 0.0780109 -0.109382 -0.124153 0.0763441 0.107433 0.146306 -0.203551 -0.0770282 -0.190663 0.109482 -0.108709 -0.00827567 0.106657 0.103134 0.0326124 -0.144685 -0.00482393 -0.141339 -0.14503 0.0669732 0.083959 0.0373575 0.105955 0.220442 0.149676 0.0227139 -0.121515 0.0934282 -0.178498 -0.140974 0.135039 -0.16235 -0.0998501
project -0.0786192 -0.0909771 -0.180357 0.0855322 0.123474 0.0917687 0.132544 -0.201877 0.0298267 -0.169272 0.206826 -0.00153873 0.178308 -0.0543947 0.100739 0.139306 -0.0340375 -0.099496 0.0920064 -0.16287 0.017837 -0.0634735 0.233927 -0.216295 -0.241154 0.0175806 -0.162487 0.121724 -0.0443514 -0.0789341 0.0167863 -0.208794 -0.149948 0.0260141 0.103302 -0.132643 -0.0464119 0.132502 0.245455 0.073623 -0.0094952 -0.0389824 0.00177743 0.0443647 -0.159866 0.149174 0.163964 -0.0564472 0.161515 -0.191283 0.128697 0.112346 -0.153853 0.114247 -0.105334 0.00713931 -0.0959813 0.0987566 0.146693 -0.161359 0.091497 -0.0058405 -0.00747717 -0.0536542 0.0637373 0.0438658 0.084783 -0.13852 -0.032944 0.0604287 -0.0123683 0.127422 0.107706 -0.0658959 -0.20604 -0.00555482 -0.0806332 0.127395 -0.0393277 0.0142784 -0.02661 0.182292 0.140979 0.16221 -0.103592 0.156062 -0.238762 -0.0678091 0.0313939 0.234541 0.196205 0.137336 0.0694808 -0.194443 0.0110656 -0.150297 0.213118 0.14103 0.0460584 -0.0256194
s 0.00716816 0.109677 0.0576712 0.0655689 -0.136583 -0.12192 -0.0397856 -0.0539403 -0.145799 0.214623 -0.0442482 0.0174818 0.187272 0.00725418 -0.0494711 0.154424 0.148582 0.0806962 0.182321 -0.0101571 0.114658 0.186777 0.0140684 -0.152349 -0.108586 -0.0165443 0.216468 -0.124281 0.183208 -0.198757 0.226048 -0.183657 -0.0613922 -0.171361 -0.0870941 0.079362 -0.0491305 0.129014 0.0127979 0.111822 -0.0176069 -0.0312864 0.205367 -0.190796 0.112338 0.0184209 -0.139148 -0.188553 0.102816 -0.11042 -0.0395221 0.178972 -0.0536048 0.184624 -0.174605 0.0806938 -0.110506 -0.0840587 0.0716629 -0.134438 0.0920406 -0.156986 0.0583202 0.0916467 -0.0928835 -0.169234 -0.02213 -0.151527 -0.0962151 -0.160515 0.0169194 0.0670854 -0.155014 -0.0588305 0.211478 0.14048 -0.059251 -0.00661929 -0.066385 0.0140099 0.0859229 0.211213 -0.158312 -0.0736034 0.0760652 0.150617 0.022614 0.0262695 -0.164964 -0.0696961 0.0413997 -0.000368746 -0.0433999 -0.160842 0.136709 -0.182685 -0.0889756 0.14803 -0.157494 -0.0752754
anywhere -0.158979 -0.0432734 -0.172981 -0.183763 -0.0321032 0.0738461 -0.0127784 -0.142079 0.0880094 -0.226801 -0.197218 -0.0855919 0.0451392 0.0753737 -0.147925 0.0249376 0.107622 0.22157 -0.171611 -0.038569 -0.0494067 -0.0749837 -0.17519 -0.201971 0.233563 -0.233719 0.0258307 0.163788 -0.0768419 -0.0188677 0.168163 -0.17213 -0.073541 0.0955773 0.172624 0.131509 0.19069 0.0882171 0.204339 0.135681 -0.211097 -0.027543 -0.204424 -0.119675 -0.218285 -0.0509007 0.0772868 0.108886 0.138333 0.085801 0.0103876 -0.187259 0.229826 0.149877 0.0680341 0.222884 0.184677 -0.181157 0.0912613 0.0934293 0.24318 -0.0615566 0.101257 0.0517378 0.189798 -0.0606584 -0.127919 -0.115729 -0.231044 0.00544616 0.015446 -0.199126 0.141144 0.105781 -0.110619 0.0229999 0.0218765 -0.0787549 0.197855 -0.151894 -0.051945 0.139175 0.145599 -0.0197076 0.0273411 -0.150858 0.0306726 0.068187 -0.104288 -0.00281858 0.123604 0.0289456 -0.104189 0.193725 0.152916 -0.232904 -0.233769 -0.0718261 -0.210548 0.0635019
the 0.122677 -0.196892 0.032682 -0.0639846 -0.203046 0.201801 -0.145053 0.0834158 0.123476 0.0273437 -0.247509 0.16193 -0.16318 0.216241 -0.231263 0.0566322 0.0979014 -0.00486324 -0.126445 -0.126606 0.170555 0.227569 0.19073 0.00974518 -0.0842823 0.0466428 -0.134322 -0.0909533 0.135287 0.200718 -0.112915 -0.174111 -0.107987 -0.0394082 0.148146 -0.127589 -0.0555345 -0.0935123 -0.0828984 0.101703 0.0366973 0.118185 0.234878 -0.126642 -0.29293 0.0661782 0.15679 0.199806 -0.219831 -0.169573 -0.153936 -0.0631276 -0.0229015 -0.24963 -0.0983431 0.213607 -0.199693 0.157266 -0.215749 -0.202308 -0.040289 0.139742 -0.110879 0.274178 -0.203417 0.115134 0.00489217 0.133804 -0.019861 -0.184725 0.133237 -0.00318051 0.0439812 0.248257 0.196716 -0.0123819 -0.144672 0.0471189 -0.168868 0.175569 0.0517189 -0.291007 0.0543835 0.0773084 -0.141639 0.118782 -0.183253 -0.135211 -0.0100934 -0.0776109 -0.084856 -0.0124687 -0.273027 -0.105046 -0.222247 0.0861825 -0.100483 -0.0930842 0.152017 -0.201565
or -0.105172 0.0653273 0.0809007 -0.00691353 0.176439 -0.0273694 0.203024 -0.0999234 -0.0202111 0.00227752 -0.118079 -0.0168907 -0.187895 0.0619222 -0.0136261 0.0504541 -0.105561 0.0899266 -0.00910748 -0.0774126 -0.0871702 0.104518 0.175689 0.121712 0.113606 -0.0183109 0.0792244 0.172496 -0.0167568 -0.127793 0.052273 -0.0726958 -0.169321 0.188234 -0.111415 0.140868 -0.00311677 0.0880049 -0.0834965 -0.190565 0.14506 0.114624 -0.121411 0.0372806 0.179176 0.145857 -0.119 -0.0572776 -0.006185 -0.121323 0.142693 0.0671921 0.123573 -0.0173677 0.0262528 -0.114902 0.103641 0.153345 -0.0727018 0.12479 0.0262881 -0.0641224 -0.0227016 0.00285244 -0.114745 -0.192453 -0.191885 -0.0935687 0.0731246 0.0612814 0.190983 -0.119701 -0.102404 0.190272 0.139767 0.109061 0.183753 0.035729 0.129576 0.0143292 0.220924 -0.0539746 0.069761 0.0489175 0.0503081 -0.206709 0.208219 0.168071 -0.102968 0.144146 0.151682 -0.180842 -0.0453302 0.0591146 0.168674 0.172475 -0.217984 -0.159298 -0.143892 0.116941
