1427 100
全集 -0.102486 0.0610835 -0.0650762 -0.0487261 -0.0627506 0.00529116 0.0394895 0.0304542 0.0197787 0.000168837 -0.118826 0.117719 -0.0539082 -0.0834376 0.0701639 0.0158504 -0.0247608 0.103681 -0.0936745 0.121623 -0.0843251 0.0174881 -0.0151771 -0.0829717 0.114158 0.0534302 0.0854746 0.0776853 0.0341157 -0.0980273 -0.101273 0.0879582 0.0557283 -0.0871337 -0.13077 -0.0361897 0.0312141 -0.0270078 -0.0601164 0.0865595 0.0656555 -0.0388212 0.0353383 0.0106697 0.0466541 0.041729 0.0494897 0.0802836 -0.0216248 0.0888973 0.0393667 -0.0826974 -0.0318656 -0.0153393 0.0209933 -0.0980006 -0.00347633 0.117633 -0.0704467 0.0344643 0.0416925 0.0998042 0.057577 0.0341814 -0.106298 0.0048714 -0.0598886 -0.0246101 0.0210101 -0.124221 -0.0605391 -0.0492261 0.0965575 0.0525291 0.0377619 -0.0713688 -0.0470916 -0.00370743 0.0936565 0.045296 -0.0295199 0.0806639 -0.0574266 0.00528767 0.10595 0.077119 -0.0482331 0.0216998 0.00179466 0.101242 0.022227 -0.0516336 0.0681854 0.0719585 0.0340815 -0.0374493 -0.0746395 0.00319884 0.0545074 0.107357
歌 -0.0288236 -0.0356371 -0.13601 0.0728968 0.0191098 0.154344 0.0672084 -0.124649 -0.0207432 -0.139913 -0.0824036 -0.0353411 -0.0195681 -0.0944402 -0.0271254 0.0210749 0.00265412 -0.0308464 0.00926504 0.00711927 0.0245292 0.0290593 -0.0273755 -0.0844767 -0.0669784 0.0722946 0.0748215 0.0180865 -0.0307239 -0.0273924 -0.0566262 0.0241573 0.102384 -0.0889339 -0.0195672 0.0510079 -0.0109255 0.00844734 -0.0541462 0.0857345 0.0449449 -0.107221 0.078979 0.0729504 -0.0428684 -0.0592562 0.0810219 -0.00727143 -0.0560151 -0.0377347 0.0618063 -0.0516418 0.130336 0.0115481 -0.0429952 -0.00888873 0.0756937 0.104233 0.090199 0.135848 -0.0489231 -0.0792303 -0.0364355 -0.0122055 0.0877579 -0.0521757 -0.0739327 -0.0704788 0.128365 -0.00424816 0.11871 -0.0839155 0.0813603 -0.0448318 -0.0526952 0.0933641 0.0940957 -0.077705 -0.0691938 0.0986217 0.0420528 0.064413 0.122409 -0.160737 0.0631313 0.017526 -0.0136736 -0.104575 -0.104558 -0.140975 0.0643695 -0.046104 -0.0947333 0.119689 0.0239554 -0.043844 -0.0850308 -0.0849793 0.134083 0.116272
たかっ -0.0159114 0.0466001 -0.00990642 -0.00594061 0.041474 0.00432234 0.0297316 0.00997658 -0.00087895 -0.0306893 0.0529376 -0.0512561 -0.0143261 0.0172413 0.0411994 0.045804 0.0224864 -0.0436125 -0.00996339 0.0311121 -0.020256 0.0302928 0.0278062 0.0419176 0.046831 0.0499669 0.0650727 -0.0202313 -0.0411672 -0.040732 0.0233181 -0.0114321 -0.0108131 0.0293615 0.0271015 0.0493567 0.0508732 -0.0560845 -0.0582059 -0.0496567 0.00649985 0.0467887 -0.0202048 0.0505892 0.0181272 -0.021459 -0.0279045 0.00536598 0.0237431 0.0501408 -0.00975724 -0.0465484 0.0481691 0.049712 0.0295422 0.0103357 -0.0464837 -0.0411872 -0.039035 0.0177424 -0.0631422 -0.011891 -0.0076924 -0.0631776 -0.00801228 0.0230903 0.00253101 -0.0727401 -0.0578915 -0.0512982 0.000555452 -0.0218112 -0.00230971 -0.0505535 -0.0114603 -0.0093406 -0.0762547 -0.0327443 -0.0557503 0.00276601 0.0292041 -0.00958712 0.00246231 -0.0124542 0.00767965 0.0402241 0.0251667 -0.038574 -0.0280552 0.00199738 -0.0414085 0.0553627 0.0526832 -0.0218457 -0.0361672 -0.0839983 0.0421554 0.000797387 0.00646211 0.0335831
大声 -0.058121 -0.056961 0.0473957 -0.047321 0.0357964 0.0343062 0.031672 -0.0221793 -0.0100635 0.0286087 0.0027181 0.0444326 0.0874471 0.005399 -0.0265772 0.0478912 0.00941813 -0.040483 -0.0427413 0.073047 -0.0539606 0.0504047 -0.0372815 -0.0176924 0.0112899 0.00191894 0.000744432 -0.0538286 0.0563587 -0.0699654 0.0188741 0.0313844 -0.029941 -0.00567423 0.0299443 0.000725945 0.0525861 -0.0553564 0.015553 -0.0187503 0.0361704 -0.0496083 0.0836942 0.0355078 0.000406524 0.0585636 0.0774353 0.053123 -0.00875328 -0.0698585 0.000452494 0.0388608 0.0416436 0.0113672 -0.0547013 -0.0301743 0.0364718 0.0410357 0.0125071 -0.034319 -0.026795 0.0664584 -0.00872949 -0.0255699 -0.0298906 -0.0576026 0.0572914 -0.0263119 -0.0545724 -0.0136888 -0.0553694 -0.0439158 -0.0502337 -0.0382098 0.018386 -0.0115412 0.03152 -0.0369343 0.01221 -0.0886493 0.0772395 -0.0578072 -0.0456553 -0.0455681 -0.0423199 -0.0136711 -0.0139208 -0.066544 0.0066331 0.00772306 0.0610598 0.0599243 -0.00828579 0.0461513 0.00102409 0.0153148 -0.0159801 -0.0553706 -0.0564939 -0.0658253
地 0.00399533 0.057065 -0.0335873 0.013466 -0.00644699 -0.0028866 0.0297198 -0.0922898 0.0597505 -0.038744 -0.0420255 0.0264075 -0.104839 -0.0126347 -0.0712738 0.0431419 -0.0310506 0.0284557 -0.0308839 -0.00556224 -0.0189338 0.0441006 -0.0754929 -0.0512128 -0.0258828 0.0623494 0.0441919 -0.0356971 -0.0463297 -0.0623661 -0.0657413 0.0529616 -0.0172309 -0.0380992 0.00372048 -0.0196651 0.0326109 -0.0664279 0.0162649 0.0642015 -0.0121473 -0.0820054 -0.00445361 0.0986497 -0.00616838 -0.0171779 0.00620281 0.011581 -0.0925012 0.0214695 0.00597435 0.0296068 0.0115694 -0.0573609 0.0141071 -0.0238861 0.0720416 0.077948 -0.116712 0.0978939 0.014303 -0.0476021 -0.0463555 -0.0579751 0.000681695 -0.0187902 -0.0344754 0.0845142 0.0455508 -0.0350719 0.100625 -0.00794487 0.0750874 0.0654046 0.0314552 0.0166103 -0.0126216 -0.000748932 -0.0688707 0.0680877 -0.0805507 0.0870307 -0.0592213 -0.0155028 -0.0215743 0.0928197 0.0127486 0.0779656 -0.0434615 0.112894 0.0152982 -0.0893548 -0.0527284 0.07769 -0.0692008 0.0563421 -0.0518089 -0.0578002 0.090703 0.0711358
ばかばかしい 0.0140975 0.0289311 0.0394643 -0.0312763 -0.058853 -0.00910646 -0.0575498 -0.027278 0.0234626 0.040918 -0.00809181 0.0200163 0.0460475 -0.00959671 0.00437956 -0.0459142 -0.0335974 0.0624761 -0.0300318 0.00737611 0.0123805 -0.0201934 -0.0111821 -0.0308724 -0.0383255 -0.0532174 0.0572842 -0.044531 0.0496702 0.0665744 0.0572915 -0.0486645 0.00501387 0.0641816 0.000761377 0.01091 -0.0258176 -0.0593582 -0.048268 -0.0643659 -0.0317169 0.0159845 -0.0652808 -0.00263808 0.0045395 0.0433687 -0.0474199 0.0363128 -0.0228888 -0.0437458 -0.0610832 0.00033268 -0.0194839 -0.0397832 0.0612111 0.019615 -0.0280882 0.0154105 0.0507401 -0.0554375 -0.0276307 0.0585838 0.0335257 0.0123392 0.0228288 -0.00043196 -0.0444967 -0.0258163 0.0481147 0.0323151 0.0399603 -0.0512911 -0.0551883 0.0248851 0.00258226 0.0153724 -0.00877968 -0.0420351 0.0686138 -0.0168839 0.0631353 -0.0663557 0.0431039 0.0250862 -0.0652827 -0.00608724 0.0362569 0.0738635 0.0256326 0.0310617 0.0428919 0.00433514 -0.0537367 -0.0515069 -0.055617 -0.0793437 0.0633634 -0.0397036 -0.0645443 0.0396353
歳 -0.077291 0.0193939 -0.0558535 -0.0164447 -0.0166979 0.0206634 -0.0560727 0.0938166 0.082579 -0.0217094 -0.0239666 -0.00421609 0.0174073 -0.0228393 0.0128295 -0.0151045 0.0449102 0.0527213 0.0524952 -0.00188994 0.0237084 0.00304929 -0.0577162 0.0293213 -0.009493 0.0447405 0.0093845 -0.00712616 0.0563957 0.0272601 0.0176498 0.0245335 0.0636522 -0.0937774 -0.0869081 -0.0778553 0.0424675 -0.0623091 -0.0422138 0.076148 -0.046016 -0.0902839 0.0146823 -0.0398782 0.0944446 -0.0147845 -0.000354136 -0.0515841 -0.0476739 0.012809 0.0340656 -0.0288996 -0.0451917 -0.0995463 -0.0130857 -0.0361517 -0.0832665 0.0585155 -0.0366172 0.0517412 -0.0188979 0.063019 0.00419515 0.0160396 0.0135634 -0.0384685 -0.0286002 -0.0215107 -0.0106561 0.0161091 -0.0550087 -0.0029215 0.0568242 0.0340736 0.0576894 -0.0576366 -0.0434561 -0.0068726 -0.0135377 -0.00333453 -0.0474563 -0.0478077 -0.0460008 0.00126558 0.0298021 -0.0375609 0.0168168 -0.0201077 0.0473386 0.0132302 0.0612063 -0.0113731 -0.0298718 -0.0125508 0.0789711 -0.048863 -0.0232112 -0.00933451 0.0354969 0.0402388
だって 0.0186755 0.0580722 0.115198 0.0290567 0.00633866 0.0202788 -0.0932815 0.112492 -0.0222603 0.0772789 -0.0672253 0.0377679 0.0678321 -0.074311 0.126068 -0.1214 0.0708011 0.103116 0.00642284 0.0865951 -0.0858444 0.00340754 0.00291778 0.0540139 0.0310811 0.0320549 0.0615902 0.112826 0.0895948 0.00380846 -0.0112346 0.0574407 0.00616528 -0.0265852 0.0211777 -0.11791 0.0884043 -0.0175655 -0.0494304 -0.0287415 -0.0732407 -0.0922658 -0.0776717 0.0563178 0.157213 0.0670782 -0.0748987 -0.0280459 0.0155646 0.0913858 0.0237248 -0.0131065 -0.164138 -0.0294681 -0.0201144 -0.0290181 -0.107373 0.0897202 0.053842 0.0721814 0.0426565 0.135856 0.101953 0.134593 -0.110123 -0.0129065 0.0815063 -0.033962 0.00538151 -0.00973875 -0.127948 -0.00129821 0.0242391 0.0793796 0.0443283 -0.0327271 -0.0467481 0.110975 0.0941336 0.02379 -0.0633232 -0.0979532 -0.118904 -0.0542462 0.00568967 -0.0677385 0.0866417 0.0327884 0.0206023 0.0736999 -0.0196693 0.0796795 -0.0345664 -0.125553 0.0188509 -0.00935728 0.0414196 0.177005 -0.0317815 0.0426632
歩 -0.0322572 0.0808542 0.00798663 -0.0830984 0.0101249 -0.0289832 -0.128338 0.0114353 0.11146 -0.00447845 -0.0181994 0.082193 0.00369857 -0.0174113 0.111995 -0.0622302 0.0370898 -0.0164087 -0.00902625 0.0217319 -0.035807 -0.00612754 -0.0605441 0.0837823 -0.0067871 0.0271525 0.00186415 0.00484556 0.0425973 0.0296304 -0.0223626 -0.00618227 -0.035316 -0.0823241 -0.00613256 -0.0467522 0.093541 -0.0669848 -0.0466081 -0.0189786 0.0163175 -0.0177189 0.0774875 -0.00960957 0.0399195 -0.0109418 -0.00048963 0.00307582 -0.115975 -0.0293033 0.00977688 -0.0427078 0.00519121 0.0459888 0.0612047 0.0393066 -0.0382055 -0.0901833 -0.0378799 0.0161662 0.0388981 0.0667212 0.0688687 -0.0612423 -0.0513625 0.019364 0.0190828 -0.0801187 -0.0744456 0.00590473 0.0145003 0.0512892 0.0508165 -0.0477765 0.0600134 0.000866624 -0.0828149 0.0341326 -0.0262925 0.0172901 -0.000767897 0.0627605 -0.0679887 -0.00401774 0.0524544 0.0965504 0.00644971 -0.0378876 -0.113264 -0.0308364 0.0265915 0.0352337 -0.0643231 -0.0134729 0.02338 0.0360171 0.113518 0.0842128 -0.0200341 -0.04017
無かっ 0.0693191 -0.00548071 -0.0112772 0.029254 0.0182857 -0.000905916 0.0679987 -0.00301818 0.0143581 -0.0483843 -0.0575475 -0.0124527 -0.0841924 0.0573678 -0.0275829 0.0232046 0.0150546 -0.0261775 -0.0345135 0.0774308 0.0790767 0.0262978 0.0346408 0.0158074 0.0503248 -0.0257355 0.0207799 0.01781 0.0896533 -0.0121899 0.0275771 -0.065976 0.00855684 -0.00500244 0.00100237 0.0671453 -0.0277253 -0.0618983 -0.0878917 0.0104957 -0.0414328 0.0475802 -0.0500316 0.0436728 -0.0418139 -0.121508 0.0899743 0.0183332 -0.0170157 0.0514791 0.0979888 -0.0508417 -0.0276188 -0.0514481 0.0149823 0.0145211 0.0745072 0.0311729 0.0250176 0.0246478 -0.0107901 -0.0374101 -0.065425 0.0352968 -0.081251 0.00767924 -0.0822423 -0.00105022 -0.061531 -0.0483424 0.0566325 0.00991813 -0.00189533 -0.0471029 -0.0024242 0.0945703 0.0446066 -0.0109809 -0.0333479 -0.0340153 -0.0598683 0.0179524 0.0124519 -0.0180456 0.0250469 0.0329524 -0.0443076 0.00834507 0.0452107 -0.0422703 -0.0625776 -0.0323155 0.0719868 0.0356429 0.0506916 0.057128 0.0224238 -0.0980701 0.0267905 -0.0239446
此 0.0834066 0.103129 -0.0754949 -0.0644277 0.00674922 0.00632355 -0.0227553 -0.0563198 0.103365 -0.154803 -0.164383 -0.0243074 -0.0765238 0.157302 -0.205973 -0.0200389 -0.182515 -0.0319618 -0.12242 0.00217728 0.0655209 0.090103 -0.164673 -0.155195 -0.048435 -0.0890044 -0.168213 -0.139656 -0.0269623 0.0297534 0.102264 -0.102644 -0.0445411 0.0851986 0.0461665 -0.0431773 0.0363057 0.076012 -0.00385568 -0.0540183 -0.0093111 0.139641 0.0950394 0.0461708 -0.138211 0.0575823 0.0349465 0.234649 -0.0182513 -0.119033 -0.106435 0.00606109 0.167117 0.0817773 0.0347494 -0.0702568 0.1015 0.0189039 -0.054065 -0.0059609 0.0949614 0.0839803 -0.149197 -0.124877 0.0451924 -0.0320759 -0.0734652 0.0810707 0.079631 0.108663 0.111523 -0.121484 0.118573 0.0203358 0.102045 -0.0710803 0.00508546 -0.0939371 0.037547 -0.106071 -0.0386444 0.130899 0.102911 0.124451 -0.000517863 0.00514037 -0.00170576 0.093809 -0.0238628 -0.0376334 0.0706095 -0.0748437 -0.0793782 0.208318 -0.111028 0.0539997 -0.0238739 -0.0464379 0.0767971 -0.166083
むだ 0.0271596 -0.0259207 -0.012145 -0.00628251 0.0604333 -0.0718689 -0.0585262 -0.0258 -0.0701218 -0.0172484 0.0374676 -0.00943777 0.0330029 -0.00799035 0.0488685 -0.0609223 0.0199069 -0.0244689 -0.0403402 -0.00633735 -0.0612464 0.0520731 0.0452047 -0.0265891 0.0282905 0.00903083 0.034181 0.0577347 -0.00255666 -0.027688 -0.0416883 -0.0159477 -0.0708708 -0.0368406 -0.0554628 -0.0679132 0.0624756 -0.0358032 0.0793165 0.0134947 0.0426473 0.0559332 0.0396054 -0.057658 0.0630467 0.099609 -0.0548313 0.0095286 0.0331602 0.0500253 0.0261327 -0.00808373 0.0178946 -0.0123811 0.049805 0.0233356 -0.013045 0.0577889 0.0257972 -0.0492507 0.00584549 0.0319661 -0.000267712 0.0167506 0.0248975 0.0259019 -0.0373397 -0.0421612 -0.0367199 0.036777 -0.0792977 0.0866039 0.0311679 -0.0429682 -0.00601458 0.0261654 -0.0145508 0.0378288 0.0206754 -0.036521 0.0228207 -0.0851566 -0.0708193 -0.0795135 0.047818 0.0357919 0.0454642 0.00378607 0.0452173 0.0418921 -0.00299479 0.0452616 0.0320798 -0.071836 -0.0593819 0.0365811 0.0492903 0.0631092 -0.0476943 -0.0252911
山越え 0.004706 -0.0219095 -0.0550854 0.0260035 -0.0130208 0.0438851 0.0302841 0.0395492 -0.0513557 0.048031 -0.0348763 0.0286775 0.133825 -0.0514353 0.00939077 -0.0820389 -0.0287383 0.144168 0.0812696 0.0448936 -0.0955924 -0.125984 0.0955773 -0.0466696 -0.033362 0.0883655 -0.00892948 0.0418371 -0.000119444 -0.0766635 -0.0462774 -0.023178 0.0271173 -0.00161476 0.048418 -0.0330079 0.00344447 -0.0490037 -0.0616293 0.0933486 -0.02823 -0.0116725 -0.0401192 -0.0385929 -0.0334417 0.11863 -0.0748278 -0.0595973 0.0211472 -0.108333 -0.0593633 -0.0399169 -0.052826 0.0354957 -0.0511415 0.000592176 -0.0736381 0.0952313 0.0652631 0.00426695 -0.034099 -0.0658062 0.0267606 0.0610695 -0.06748 0.0690457 0.0987609 -0.128874 0.00341362 -0.082515 -0.0849049 -0.0849287 -0.0035622 0.057435 -0.0603912 0.085653 0.0412246 0.00816366 0.000505713 -0.0975899 0.0518128 -0.0296883 -0.0370509 -0.0754006 0.0166113 -0.0416714 0.0845203 -0.00554034 -0.0633332 -0.0364259 0.00128961 0.0557601 -0.0469911 0.0134743 0.0168095 -0.0325947 -0.00726267 0.0545328 0.00607584 0.0607712
事 -0.246144 0.0316971 0.00135917 -0.00126717 -0.0774631 0.207555 0.168822 -0.0784884 0.129257 0.092853 -0.186718 0.0807833 0.183203 -0.0688205 0.123178 0.131606 0.0805725 0.0775495 -0.104299 0.115364 -0.0659838 0.193386 0.126078 -0.0172387 0.0525046 -0.0175243 0.0983722 0.0154608 0.0673148 -0.229394 0.060355 -0.0829864 0.0998604 -0.105226 -0.204338 -0.175784 0.0999941 -0.103109 -0.131056 0.077161 0.103568 -0.144831 0.136424 0.139327 0.186062 0.207858 0.125988 0.0700884 -0.0681187 -0.0348691 0.181167 -0.123574 0.0649933 -0.092835 0.248426 -0.0456695 -0.0936077 0.180016 0.00730947 0.177343 0.0919723 0.0842468 -0.0663414 0.0972085 -0.0733202 0.00665085 -0.060887 -0.185337 -0.0140593 -0.166418 -0.0173953 -0.22916 0.130691 0.046813 0.0971634 0.106578 0.285882 0.0601474 0.0465152 0.0212525 0.0137561 -0.149887 -0.0573098 -0.194805 0.0541922 0.0603035 0.0933339 0.107032 -0.132818 0.0129085 0.17354 -0.0113164 -0.0169293 0.0344125 0.185902 0.217638 -0.0541071 0.0469248 0.132619 0.239654
二 -0.0519432 0.106173 0.18295 -0.0699958 -0.0616871 -0.00658215 -0.192422 0.133825 -0.0465203 0.139493 -0.100772 0.130219 0.105393 -0.183059 0.280645 -0.121901 0.0972349 0.0579839 0.128424 0.0871253 -0.0890184 0.0554779 -0.10287 -0.0745425 0.108134 0.0386036 0.046301 0.114346 0.126679 -0.0205387 -0.00343407 0.0174033 0.0662482 -0.17526 -0.15492 -0.194712 0.213027 -0.0956372 -0.0231283 0.0487924 0.0469386 -0.168091 -0.0127003 0.109163 0.288528 0.208891 -0.0830181 0.0861954 -0.111332 0.132843 0.0288135 0.0821301 -0.0103423 -0.0440526 0.248933 -0.0580562 -0.29954 0.198316 -0.0296822 -0.0698097 -0.00705144 0.183977 -0.0289016 0.16464 -0.0552832 0.115779 0.115455 -0.126225 -0.0256085 0.00267568 -0.0578904 0.0907485 0.0214719 0.082312 0.120728 0.0766365 0.0950041 0.166131 0.0641843 -0.14072 -0.0925058 -0.110974 -0.136136 0.0409162 -0.0621843 0.115682 -0.0201098 0.000525564 -0.0698211 0.0714842 0.203238 -0.0367308 0.0106996 -0.0667204 0.052517 0.117968 0.0665209 0.231158 -0.0620475 0.106095
用事 0.0311206 -0.00376719 -0.0616786 0.0230096 0.00873738 0.0617958 0.0181225 -0.0496406 0.0111291 -0.0244422 -0.00747688 -0.0987967 0.105794 -0.0706775 0.0422025 0.0229964 -0.023197 -0.080839 -0.0584972 -0.0666826 -0.0510154 0.0086579 0.0134268 -0.0405435 -0.067338 -0.0244276 -0.0498344 -0.0545841 -0.0514438 -0.0223186 -0.00999682 -0.0281982 -0.0552601 0.00146395 0.0368708 -0.0360017 0.0205262 -0.0101801 -0.0275504 -0.0610211 0.0618676 -0.0126466 0.108485 -0.0235116 -0.123027 0.0575678 0.00545876 0.0356849 0.0191758 -0.0966795 0.0370117 0.00125272 0.0575651 0.00703311 0.00876836 0.0613366 0.0513855 0.0789998 0.0471163 -0.0553058 -0.0636533 -0.0117182 -0.0464398 -0.0372402 0.049101 -0.0667631 0.0399465 -0.0382499 0.0295209 0.0115562 0.0571497 -0.110918 -0.0442286 -0.0167817 -0.00182666 0.0919032 0.0708475 -0.00562025 0.0140715 -0.0117099 0.0429098 -0.0966329 0.0196666 0.000142096 0.0488169 -0.0259311 0.00947354 -0.0792626 0.0169079 -0.0636065 -0.0435815 -0.00628628 0.0307588 0.0127235 0.029174 0.0702253 0.0180425 -0.0965422 -0.00626186 -0.0634514
互 0.0249891 -0.0138401 -0.0187228 0.0377452 -0.0175848 -0.0203477 -0.0317656 0.0335474 -0.025408 -0.0188857 -0.0436018 0.0198764 0.0102218 0.0500412 0.00996137 0.0826191 -0.0169696 0.0466645 -0.0458377 0.0364567 -0.0247514 0.0536519 -0.0136755 0.0149976 -0.0400591 0.0407932 0.05445 -0.0112616 -0.0169635 -0.0608932 -0.0179798 0.0393587 0.0489847 -0.0112479 -0.082606 0.056709 0.0165221 -0.0532403 0.0172399 -0.00578794 -0.0377025 -0.00210465 -0.0245863 0.0382346 0.0755376 0.0098086 0.0300272 -0.020043 0.0226779 -0.0080397 0.0243806 -0.00271309 -0.0703538 -0.0773368 0.05513 -0.0508255 0.0498821 -0.00504343 -0.00442077 -0.005418 0.0258144 -0.021888 -0.0894162 0.0639705 0.0204129 0.031128 -0.069016 -0.0556799 0.0703085 -0.0391184 0.0869497 -0.0429498 0.074562 -0.00316166 -0.0196627 -0.0174059 -0.000400568 0.0088102 -0.00429486 0.00729699 -0.0308011 0.0878943 0.0237125 -0.0627015 0.0266801 -0.0322874 0.0353826 0.00359619 0.0161225 0.0252987 0.0842321 -0.0382311 0.0611267 0.00822845 0.0671282 -0.028341 -0.0144057 0.0579966 0.0454308 0.0170227
跳ね -0.09617 0.0136571 0.130462 0.0127135 -0.0537135 -0.00381382 -0.0427789 0.0803424 0.0420817 0.0212316 0.0207576 0.0306699 0.0241809 -0.0917762 0.0499264 -0.108956 0.0270188 0.164728 0.00618508 0.0501687 -0.158053 0.0182904 -0.0429483 -0.0492373 0.0315539 0.0895289 0.0305397 0.143696 0.0484141 -0.00590532 -0.018482 0.0313249 0.00711898 -0.0747269 0.0121516 -0.124458 0.0197419 -0.0669875 -0.0325826 -0.0115777 -0.000300365 -0.0507535 -0.136038 0.0400386 0.145021 0.131973 -0.0408832 -0.0299098 -0.0314203 -0.000900888 0.0678241 0.0295758 -0.0732124 -0.112086 0.102801 0.0211449 -0.0919988 0.017813 0.0221095 0.0815478 0.00153926 0.0573239 0.090602 0.0925198 -0.107518 0.057813 0.0689186 -0.0408204 -0.0562858 -0.0194714 -0.117029 0.0592699 -0.0234402 0.0662979 0.083623 0.032641 0.0381903 0.154537 0.0978079 -0.00339519 -0.0612583 0.0142791 -0.0608849 -0.059346 -0.00186928 -0.0343247 0.180043 0.0315576 -0.0682645 0.11897 0.0398057 0.0403529 0.017839 0.0173853 0.0780026 0.00266603 -0.0645723 0.131899 -0.048398 0.0836045
切る -0.0233098 -0.0335091 -0.0299314 -0.0838911 -0.0800197 0.0376746 0.000484855 0.0594015 -0.0193788 0.00967253 -0.0309049 -0.00436363 -0.00182923 -0.00118702 0.0466694 -0.0115715 0.0174257 0.00434589 -0.0290572 0.057764 -0.0495623 -0.0331574 -0.0190002 -0.0654734 -0.00736851 0.077183 0.072509 0.00020992 0.0098085 -0.0396062 0.0189882 0.0496205 0.0913699 0.0374799 -0.0658803 -0.0398564 -0.00560395 0.0146809 -0.0749356 0.0466269 0.00330489 -0.0278971 -0.00110959 0.0349666 0.00567882 -0.0219787 -0.00356463 -0.00164543 -0.044238 0.0335646 0.024509 -0.0142998 -0.0716956 -0.0413151 0.0178224 0.00781701 -0.0445509 0.00367055 -0.0315616 0.0601617 0.0403156 0.050188 0.0490844 -0.0399947 -0.0221606 0.0279053 -0.0626852 0.00636087 -0.0046834 0.00365633 0.0413624 -0.0868037 -0.0221972 0.0272304 -0.0171287 0.00526401 -0.0306532 -0.0437277 0.0380631 0.0092937 -0.011794 0.00793947 -0.0118275 -0.0179539 0.0243549 0.0223696 0.0343828 -0.0278255 0.0143524 0.0157262 0.0665762 -0.00962334 -0.047352 0.0323832 0.0711304 0.0409752 -0.0455945 -0.0155007 0.0740346 0.00219282
切り -0.0466497 0.0755451 0.0183538 0.0359546 -0.079174 0.0286597 0.056983 0.0815109 -0.010888 0.0516787 -0.0289225 -0.0611743 0.0149425 -0.103506 0.137155 0.0170735 0.0338498 0.0670084 -0.0316726 0.000591543 -0.125285 -0.112412 0.0627658 -0.0523865 -0.0908418 0.0406825 0.116082 -0.00835428 -0.0437442 -0.0782444 -0.0556119 -0.0355436 0.0889705 -0.0459748 -0.0112979 0.0669233 -0.0621101 0.00557437 -0.000741244 0.0772986 -0.0814694 -0.0218242 -0.00960443 -0.0491724 -0.0472542 0.116318 -0.0851403 -0.120706 -0.0788112 -0.0878099 0.0129358 0.0387549 0.0226783 -0.0215356 -0.0123786 0.0168013 -0.113315 -0.00655403 0.0151979 0.0285742 -0.0647814 -0.0805251 -0.0274088 0.0971917 0.0456664 -0.0140625 0.00337828 -0.0178201 -0.000387671 -0.018451 -0.0760532 -0.0606896 -0.0426856 0.0331621 -0.0900042 0.0947426 0.0595261 -0.0072984 0.0423844 -0.0234586 0.085757 -0.037336 -0.082601 -0.0981492 -0.05566 0.0055217 0.14598 0.00882451 -0.0183918 -0.0796472 -0.0513228 0.101082 -0.109694 -0.00403668 -0.0191722 -0.0290875 -0.0246308 0.0332756 -0.0429723 0.0808768
森 -0.0308488 -0.0038329 0.1098 0.103903 -0.070569 -0.0614948 -0.00260238 0.0398015 -0.0422041 0.0264859 0.0968746 -0.103121 0.0998217 -0.15424 0.165018 -0.0169786 0.0681224 0.0394996 0.0743894 0.0314405 -0.0132141 -0.123436 0.0235607 0.0606371 -0.0753845 -0.0122465 0.0287498 0.0286548 -0.00903155 -0.025477 -0.128191 0.0220938 0.0204739 0.086056 0.0928842 0.00147583 -0.0716443 0.061873 0.105951 -0.0363075 -0.102664 0.0269924 -0.0440043 0.00150932 0.0487832 0.125981 -0.0876028 -0.114907 0.0774028 -0.127241 -0.133634 -0.0280476 -0.078143 -0.0132776 -0.0201727 0.0857252 -0.149844 0.0143128 0.142762 -0.0380869 -0.0452859 -0.0449485 0.0174811 0.0801353 -0.00686936 0.0019515 0.113895 -0.159177 -0.0276584 -0.0301032 -0.0698401 -0.105393 -0.12412 0.0118084 -0.0495599 0.0857933 0.127809 0.0558071 -0.0505096 -0.105109 0.0458717 -0.140173 0.011216 -0.0926376 -0.0393978 -0.0855831 0.0928714 0.0657958 0.00563112 0.00198509 -0.0957193 0.0799939 -0.141186 -0.0870374 -0.038366 -0.119203 -0.0709631 0.107675 0.0285999 0.11384
疲労 -0.0730136 0.156927 0.132439 -0.0734852 -0.128319 0.0854555 -0.113559 0.0422297 0.0802189 0.0302126 -0.159956 0.122151 -0.0329118 -0.0234578 0.00852971 -0.0741419 -0.0537621 0.0710707 -0.0735531 0.0410615 -0.0296607 0.079069 -0.0924635 -0.0367258 0.105956 -0.0353062 -0.0520539 0.0541655 0.0420668 0.0369374 0.0783114 0.0171811 -0.0130927 -0.133583 -0.000949486 -0.122732 0.10823 -0.0738293 -0.045323 0.0149089 -0.0286783 -0.131902 0.0595019 0.11623 0.0495071 0.150756 0.0339394 0.114245 -0.128668 0.0343761 -0.0119753 -0.0277661 -0.0377477 -0.132446 0.125168 -0.114839 -0.120515 0.127076 -0.0649296 0.13155 0.110503 0.0882033 -0.0839161 0.0926425 -0.129775 0.102092 -0.0643115 -0.0306484 -0.0042499 0.0057605 -0.0232634 -0.151085 0.0749568 0.19067 0.082178 -0.129662 -0.0695291 0.0368941 0.0621149 0.0317659 -0.121516 0.0220072 -0.0720727 -0.00174767 0.0114753 0.0611087 0.139522 0.0530589 -0.0768147 0.133034 -0.019802 0.0136682 -0.0633575 -0.0245476 0.0263361 -0.0185068 0.026432 0.104222 0.0319258 0.0615946
力 0.0993648 0.0847118 0.00653199 0.0210561 -0.0998519 0.0583805 0.0490269 -0.0816848 -0.0766642 0.0314621 -0.060356 -0.0822332 0.014158 0.0140056 0.0137306 -0.10578 -0.102056 -0.0719303 -0.0332074 -0.0159635 0.0596563 -0.00911937 -0.110424 -0.0997893 -0.0948531 -0.134052 -0.111268 -0.0429579 -0.0102264 0.0649396 -0.0277689 0.0630617 -0.012072 -0.0611519 0.0779117 -0.0446762 -0.0400942 0.103641 -0.0226467 0.0503889 -0.140529 0.0754252 0.158683 -0.0282036 -0.0662992 0.139875 0.0037212 0.0294936 0.0962949 -0.164409 -0.153393 -0.0465175 0.126293 -0.012812 -0.176123 0.144146 -0.0238066 0.0695796 0.106607 0.0761219 0.0355484 -0.0301592 -0.0318879 0.0731974 0.169453 -0.0490541 0.0456595 -0.137217 -0.0102733 0.0331346 0.0509712 -0.245932 0.108167 0.0437045 -0.0382985 0.0900371 0.0212924 -0.029483 -0.121029 -0.116868 0.0884209 0.00899545 0.113599 -0.0213677 0.0163335 -0.112007 0.183893 -0.0016956 0.0240114 -0.0977714 -0.0754325 0.0260804 -0.126038 0.173887 0.0177777 -0.138019 -0.0273253 -0.0924235 0.0643944 -0.00940358
人 0.096888 0.0390658 0.131501 -0.0773522 -0.222694 0.307033 -0.15437 -0.236361 0.10187 0.0479532 -0.122701 -0.113191 0.0309247 0.0165503 0.101183 -0.20351 -0.135391 0.156785 0.114329 -0.0307392 -0.124185 -0.0174957 -0.289658 -0.401936 -0.035265 0.0447885 -0.121793 -0.208561 -0.121223 -0.0126931 0.0129526 -0.122972 0.209854 -0.0145861 0.147753 -0.239953 -0.105928 -0.0353557 0.0181545 0.10849 -0.135206 -0.0615675 0.231405 0.0746447 0.0569851 0.276939 -0.0160486 0.346633 -0.0740412 -0.211459 -0.392966 -0.131432 0.408516 0.0817629 -0.102875 0.140745 -0.0585089 0.178584 0.107506 -0.0108004 0.207593 -0.0582793 -0.36497 0.197141 0.0699305 0.0339132 0.111073 -0.125306 -0.0418989 -0.045708 0.251121 -0.249115 0.149537 -0.0685718 -0.0212154 0.189191 0.100388 -0.154681 -0.171556 -0.0620693 0.0732655 0.0523104 0.0530709 -0.155782 0.0449397 -0.163152 0.540644 0.268971 -0.160963 -0.335786 -0.0777293 0.0253758 -0.214067 0.295156 -0.299902 0.021927 -0.0136992 0.0759563 0.0864378 0.139174
口惜しく -0.0594364 -0.0109969 0.0297417 -0.0469392 0.0728782 0.0358397 -0.0201209 0.0129929 -0.0495107 -0.0353432 0.0612973 -0.0153926 0.0188526 0.00910847 -0.0124122 0.0396325 -0.0738524 0.0336321 0.0313181 -0.0781488 0.0133293 0.0637595 0.0210205 0.040302 0.0222281 0.0498323 0.077875 0.0711739 0.00865802 -0.0384363 -0.0331595 -0.0184781 0.0235093 0.0174803 0.0248867 0.0442041 -0.0137624 0.0375301 0.0494321 -0.0297023 0.0509581 0.00698599 -0.0333716 -0.0374301 0.0634553 0.0410266 -0.0702866 -0.0587868 0.00565512 -0.0021135 0.00195908 0.0139676 -0.0666528 -0.0202387 0.0096541 -0.0421204 -0.0121236 -0.0206304 -0.049713 -0.0303324 0.0452657 -0.0217425 0.00310761 -5.90045e-05 0.035779 0.0493823 0.0266062 -0.0016901 -0.0271609 -0.0306256 0.0306996 0.056369 -0.0668823 0.0331579 -0.0175572 -0.0385971 0.0511065 0.0748552 -0.0161052 0.0690026 -0.0106994 0.0177415 0.0673409 0.0244406 -0.0418177 -0.00953893 0.0165602 0.0813474 0.055962 0.0248987 0.0354095 -0.0526996 -0.040552 0.0337271 0.00605553 -0.0559139 -0.0290687 0.0438374 -0.0347086 0.02276
猛然 0.045655 0.0246763 0.0633531 0.0112364 -0.0116574 -0.0634838 -0.0393526 0.000337465 -0.080677 0.0925993 -0.018883 -0.0596943 0.00456605 0.0609785 0.0591557 -0.0117181 0.00368032 0.0564791 -0.0156992 -0.0191022 0.0370533 -0.0268187 0.035346 0.0599116 -0.0295954 -0.0234418 0.013706 -0.0229785 0.0352774 0.0730264 0.049519 -0.0428075 -0.0439623 0.0582642 -0.0114598 -0.00431468 -0.0313465 0.0697228 0.0334023 0.0105627 -0.00516264 0.0513838 0.0415513 0.00344296 0.0429988 0.108642 0.0098496 -0.0117341 0.0153652 -0.0148795 -0.0517657 0.0155436 0.041616 -0.0284131 0.0296161 0.0172615 -0.0611849 -0.0178175 0.0916616 0.0317291 -0.0702785 0.0102128 0.0450621 -0.0220571 0.0361748 -0.0317837 -0.01042 -0.0349171 -0.0192318 0.0611688 -0.0377971 0.0214421 0.0181978 -0.0726575 -0.0592757 -0.0086033 0.0240613 0.0614654 -0.0184428 -0.0336538 0.052685 0.0113471 -0.069736 0.013051 -0.0811998 -0.0908791 0.0538808 -0.0177661 0.0473984 0.0503497 -0.0481807 -0.0290942 -0.0067616 -0.0268174 -0.00880107 -0.0083604 0.0129892 0.0480731 0.00576517 -0.0693822
語っ 0.0102244 0.0673331 -0.0367977 -0.052589 -0.0574044 0.0335967 -0.0166442 -0.0335599 -0.0226037 -0.0349135 -0.0263781 -0.0536406 0.0320518 -0.0079153 -0.0412277 0.0152978 0.0157169 -0.0386538 0.0341934 0.00915848 -0.0355392 -0.0258419 -0.0333159 0.0431438 0.037976 0.0332196 -0.0399521 -0.031805 0.0347076 -0.00932315 -0.000910096 -0.00761544 -0.0231742 -2.0318e-05 0.0716341 0.0152951 -0.0114573 0.0522707 -0.0115597 0.0463093 -0.040237 0.0131889 0.0379789 0.0121452 0.00924057 0.00037812 0.000718818 -0.0194851 -0.054876 -0.0141279 0.0150037 -0.0580001 0.0790874 0.0411267 0.00944622 0.0759737 0.0695475 0.0243822 0.0524215 -0.0440626 -0.000659575 -0.0409348 -0.00515236 -0.0141103 0.0412089 0.00634069 0.0578413 -0.0101876 0.0717147 -0.0246865 0.0613397 -0.0372577 0.0502976 -0.006262 -0.0635578 0.00729163 0.0306962 0.0226779 -0.0150778 0.0417125 0.0464639 -0.0551338 -0.0422177 0.0183655 -0.0153851 0.0544379 -0.0544496 -0.0535371 -0.000749663 0.0305262 -0.0729302 0.0101358 0.0423045 0.0727434 0.0120555 -0.0235589 0.0152752 -0.030644 0.0513713 0.0344139
流れ 0.0859074 -0.0853507 0.0120974 -0.0649741 -0.0834363 0.07804 0.00522672 0.0483648 -0.105052 -0.039132 0.0296749 -0.0937369 0.177919 -0.0802616 0.0372016 0.090462 -0.0448168 0.0379626 -0.0109268 -0.0474414 -0.103758 -0.0683331 0.0117362 0.0626625 -0.0542916 0.0658498 0.0212922 0.0420892 0.0422183 -0.0373816 -0.0441876 -0.0827122 0.0380436 0.0440007 -0.0177409 -0.0139581 0.019929 0.0499448 0.0976575 0.058554 0.0451921 -0.0264931 0.0709216 -0.0502882 0.0168474 0.0869345 0.0774111 0.0248945 0.00508598 -0.137337 -0.05784 -0.0368642 0.0682224 0.103309 0.0540006 0.0440263 -0.0347842 0.0389546 0.0158947 0.0837288 0.0483786 0.00299224 -0.0097675 -0.00906245 0.132953 0.0433555 0.0732978 -0.219315 -0.0106411 0.024268 0.018782 0.00976194 -0.0185983 -0.0679629 -0.140864 0.12774 0.106846 -0.0367737 -0.0212995 -0.0533058 0.0735459 -0.0752573 0.0119627 -0.0974213 0.0558619 0.000769919 0.0525575 -0.0576154 -0.0124665 -0.105734 -0.00504875 -0.00878391 -0.0562294 -0.0194376 0.0523108 -0.0058972 -0.00365175 0.0999816 0.0416038 0.0799897
口惜しい 0.0827927 -0.0414819 -0.00320143 -0.0152058 -0.0371691 0.0353678 0.00529413 0.0690044 -0.0219677 -0.0235015 0.0063498 0.0807005 0.0258113 0.0459669 0.0360305 -0.0172921 -0.00122569 -0.0502708 0.0437887 0.0271635 0.0585443 -0.0778868 -0.0237788 0.00148851 -0.0866912 -0.028409 -0.00679517 -0.0228925 -0.00345445 -0.0315823 0.0521285 -0.0459689 -0.0629072 0.0322672 0.0552764 -0.057808 -0.0697092 0.00256656 0.0407172 -0.0531292 0.0310895 -0.0148211 0.0206388 0.000921179 -0.0113955 -0.0491227 -0.0027709 -0.00943465 0.0653362 -0.0172941 -0.0189378 0.0719297 0.0175722 -0.0388755 -0.0726599 -0.010166 0.0243129 -0.0206103 0.0410275 -0.0339107 -0.0398011 -0.0554999 0.0786832 -0.0334041 -0.028121 -0.0732055 -0.0317291 -0.00656748 -0.0827626 -0.0310539 -0.0662266 -0.0428123 -0.0168682 0.000459589 -0.062671 0.0588896 0.0344625 0.0558438 0.00662468 0.0293635 -0.0247856 -0.00635096 -0.0310328 -0.00211209 -0.0122211 -0.0780584 0.0478015 0.00836003 -0.00918484 0.044226 -0.0267845 0.0587416 0.0167133 0.019887 -0.000443146 -0.077232 0.0435753 0.0157453 -0.0371165 -0.0703072
囁き 0.0308338 -0.0452259 0.0295884 0.026082 0.0159464 -0.0799239 -0.00417192 -0.0618864 -0.0509885 -0.0547836 -0.0546518 -0.0315522 -0.092472 0.00731151 -0.073689 0.015684 0.0252649 -0.0391398 0.0257225 -0.079104 0.00320776 -0.0214805 -0.000938339 -0.101414 0.00740178 -0.0053954 -0.0412383 -0.0921809 -0.0829808 0.0843089 0.00140292 0.0200197 0.0133972 0.0318079 -0.0434665 -0.0367687 -0.030141 -0.0115651 0.0154021 0.0214629 -0.0312008 0.0333144 -0.02638 -0.00340108 0.00498594 -0.025922 -0.0208138 0.0637427 -0.0623695 0.0345809 -0.0224338 0.0251994 -0.0351414 -0.0125491 0.0701901 0.00909202 -0.00985744 -0.050119 0.00118302 -0.0103193 -0.00424324 -0.0724519 -0.0411511 -0.108321 -0.0286606 -0.0144614 -0.01184 -0.00605106 0.0894558 -0.013213 0.0210586 0.0297738 -0.0120674 -0.0433735 -0.000604673 0.0419618 -0.0384172 0.0251567 -0.0300994 0.00200823 -0.0347569 0.00755689 -0.0182454 0.0379098 -0.0834401 -0.0644577 -0.0337535 0.0573432 -0.0269757 0.0690311 -0.0463416 0.00407653 -0.000305354 -0.0186607 0.0229772 0.0195565 0.0417373 -0.0541054 -0.0401726 -0.0381224
走り出 0.0358981 -0.0290729 0.0765316 -0.0575875 0.0346037 -0.00789918 0.0543124 -0.00986735 0.0540856 0.00151805 0.0203779 0.0199031 -0.037935 -0.025627 -0.0399718 0.0157455 -0.0697978 -0.0232767 0.000948242 0.00853805 0.0339574 0.0274633 0.035843 0.0458563 0.0342094 -0.0185903 -0.0549073 -0.0287215 0.0617816 -0.0227659 0.0291986 -0.0742843 -0.0201384 -0.0538098 -0.0308198 0.02783 0.0695162 0.0554951 0.0025384 0.0407849 -0.0792265 -0.0246125 0.0292251 0.00269116 0.0210058 0.0660174 -0.0572815 -0.000339758 -0.0602987 0.0401812 0.0180284 0.0275916 -0.051372 0.0149011 -0.00738877 0.0132888 0.0498778 0.000144289 -0.0385658 -0.0410468 -0.0246127 0.0133607 -0.0684656 0.0471442 -0.0622575 0.0550828 0.0125091 -0.00355308 0.0086956 0.0368347 -0.00797496 0.0363778 -0.0288342 -0.039429 0.00152641 0.0529761 0.0317777 -0.0650551 -0.0183666 0.00390227 0.0609037 -0.0252799 0.0358283 -0.0353427 -0.00578665 -0.0537553 0.0741109 0.00172843 0.0504223 0.00769258 0.0404169 0.0266387 0.0370893 0.0315501 0.0483122 -0.0120468 0.0115231 0.0414106 -0.0335858 -0.0394937
てれ 0.0715616 -0.00794335 0.0334206 -0.00272747 0.0814292 -0.0650432 -0.00421924 -0.0586521 0.0164731 0.0319161 0.0935897 0.0839058 0.0306229 0.00942973 0.0195443 -0.0609532 0.0811344 -0.0571773 -0.0117822 -0.0546119 0.0602373 0.0382811 -0.0227777 -0.00880881 -0.0073652 0.0572227 0.0443887 -0.0369739 -0.0354826 0.0375035 0.0935447 -0.0476914 0.0172689 0.0726002 -0.0217103 -0.070003 -0.0227417 -0.00955783 0.0363913 -0.0187046 -0.0445596 0.0502823 0.00530966 -0.0889436 -0.0402727 -0.0190497 0.00352737 -0.015674 0.00610649 -0.047648 -0.0419869 0.0148357 0.0120626 0.07198 -0.0898183 0.0739029 -0.056838 -0.0784258 0.0546139 -0.0623231 0.0226025 -0.0534142 0.0366843 -0.000513346 0.00301573 -0.00511674 0.0537227 -0.0507898 -0.00989804 0.0805975 0.0310689 0.0466724 -0.0315758 -0.0884813 -0.0256485 0.0455603 -0.00606213 -0.0443196 -0.0805539 -0.0399499 0.0742368 -0.018171 -0.011579 0.0215464 0.00363332 -0.0198662 0.0459895 0.0295561 0.0223189 -0.0155819 -0.0587567 0.0736224 -0.0342329 0.00452105 0.0271776 -0.035169 0.0636706 0.0131403 -0.059868 -0.0703708
高々 -0.102696 -0.0331762 0.00917271 -0.0682868 0.000297953 0.0635704 0.0495749 -0.0970735 -0.00473893 -0.0587724 -0.072498 -0.0158897 0.0192416 0.0266292 0.0680818 0.080501 -0.0469493 -0.00642205 -0.104282 0.00686248 0.0360501 -0.00729757 0.097839 0.0203578 0.00774623 0.019212 0.047973 0.0408481 -0.0673136 -0.131323 0.0257974 -0.000232016 0.0943257 -0.0555913 -0.047724 0.0370229 -0.0384458 0.0515735 -0.094176 0.0234748 0.0248059 -0.0594171 0.129372 -0.00914459 -0.0790178 -0.0974526 0.0775552 0.0277338 -0.0295889 0.0355919 0.0159895 -0.0752068 0.0963298 0.0518184 0.0937161 -0.0547536 0.12984 0.0610659 0.0358758 0.047911 -0.0660742 0.0147789 -0.123777 -0.0176313 0.0428101 0.0402986 -0.0715094 -0.0108214 0.0336411 -0.0386034 0.0171967 -0.0828161 -0.00945162 -0.0311475 -0.0944087 0.0122815 0.0195687 -0.13577 -0.0189744 0.0560436 -0.068321 0.0176012 0.0463679 0.0645486 0.0973132 0.0970284 -0.106921 -0.0470045 0.000367214 -0.0817132 0.120369 -0.0157393 0.0719482 -0.0805378 0.00582329 0.0527371 -0.0375545 -0.0200363 0.0122615 0.11599
出来る -0.0332942 0.0410562 0.0293934 -0.0297705 -0.00845382 0.064546 0.0840263 0.0171485 0.0710836 -0.0429572 -9.57638e-06 -0.0466879 0.031575 -0.0564027 -0.0139841 0.0486886 0.00860344 -0.00591332 -0.0607176 0.0248207 0.0295426 0.029233 -0.0471718 -0.00235647 -0.0242499 -0.000423061 -0.0118964 0.00400843 -0.00908704 -0.0439072 0.0411949 -0.0166774 -0.028021 -0.0672666 -0.0718072 0.0197035 0.00695353 -0.042422 -0.00221628 0.0652611 0.0182117 -0.0463897 0.0746035 0.0814292 -0.00854051 -0.00153618 0.0511576 0.00232046 -0.009754 -0.0552373 -0.0299114 -0.0064825 0.0200177 0.0232417 0.041078 -0.0624056 -0.0391731 -0.0285484 -0.0248906 0.0570337 0.0424486 0.0305249 -0.0460118 -0.0118652 0.00833891 -0.0613914 -0.0695015 -0.0209401 -0.050732 -0.0304779 0.0466333 -0.0441334 0.027132 -0.0327861 -0.0140694 -0.0105468 -0.0195764 -0.0553577 -0.0655048 -0.0315914 0.01043 -0.0411935 0.0360173 -0.0267212 0.0460617 0.0460312 0.0358064 -0.064093 -0.0335756 0.03178 0.0400993 -0.0121658 0.035237 -0.0390745 -0.0139556 0.0368404 0.0596702 -0.031145 -0.0011171 0.0447878
それ -0.118754 -0.0757036 -0.0601036 0.121985 -0.100757 -0.0941352 -0.0653317 -0.0793033 -0.0347731 0.0147242 0.0993881 -0.0188671 0.0580251 -0.0501924 0.17223 -0.110466 0.0695036 0.103169 0.0558084 0.0699284 -0.093906 0.0135146 0.0933993 -0.0294961 -0.0290693 0.042524 -0.00168006 -0.00484224 0.040312 -0.0437699 -0.0478089 0.00746696 0.0337957 0.0134209 0.0126544 -0.0242154 -0.0340393 -0.0348025 -0.00852478 0.0402175 0.0211955 -0.0221902 -0.129 -0.0531838 0.06863 0.0251053 -0.153605 -0.198405 0.0456916 0.0124871 0.0349007 0.0587049 -0.0388869 -0.0355227 0.0642201 0.0788598 0.0569254 0.0019315 0.0852218 0.0215598 -0.0129693 -0.0447 -0.0262301 0.0812453 0.0993569 0.0149248 0.00924643 -0.0567308 -0.054688 -0.0621714 -0.125433 -0.0698373 -0.119393 -0.0805998 0.0444097 0.210574 0.159913 0.0207849 -0.100908 -0.0525588 -0.00968528 -0.1255 -0.0561239 -0.173142 -0.0885989 -0.0657993 0.215386 0.0979513 0.022808 0.0870395 0.015957 -0.0421165 -0.0562619 -0.0226726 0.0571885 0.0837168 0.118384 0.0767597 -0.0154347 0.089269
地団駄 -0.0550637 0.000990777 -0.0234312 -0.0456534 -0.026118 -0.00658454 0.0512816 0.0372636 0.0307536 -0.017875 0.0196591 0.0793996 0.00508951 -0.0165905 0.0480456 -0.0584517 0.0177241 0.0353394 0.000808221 0.0372013 -0.0271166 -0.0100058 -0.0665554 0.0391351 0.0432659 -0.00261972 0.0351632 -0.00441428 0.0553792 0.0308643 -0.0209444 0.0207201 -0.0220823 0.0320521 -0.00635884 -0.037653 0.0721572 -0.0180991 0.0447578 0.00731171 0.0548106 -0.0397638 -0.0285854 0.0539618 -0.0142001 -0.0341914 -0.0662313 0.0455322 -0.0239207 0.0104911 -0.0433971 -0.0109704 0.0322405 -0.0128236 -0.0335398 0.0414636 -0.00816971 -0.00323123 0.0340119 -0.0178312 -0.0236859 -0.0155094 0.00659573 0.0632324 0.0482651 0.0621232 0.0336008 0.0390437 0.0047617 -0.00192597 0.00775727 -0.0104592 0.0375089 -0.0154687 0.068859 -0.0630832 -0.0692277 0.00432041 -0.00746111 0.0101571 -0.0339992 -0.0517473 -0.0400002 -0.060913 0.0245667 0.0390895 0.0801934 0.0123712 -0.043014 -0.0382111 0.0171635 -0.0545717 0.0549702 0.00738297 0.0197046 -0.0216055 0.0611564 -0.015083 0.0599035 -0.0244521
願っ -0.0124105 -0.0499503 0.00516166 -0.0177641 -0.0175312 0.126393 0.00747227 -0.0539149 0.0587967 0.00882361 -0.0551136 -0.105492 0.0261092 0.0981368 -0.1269 -0.0273511 0.0396065 -0.0157378 0.0297316 0.0604565 0.119694 -0.0793016 0.0861759 0.0419321 0.0360868 -0.105743 -0.0987086 -0.0305823 0.034271 -0.0550177 0.0320712 -0.0982675 -0.0943069 -0.0645294 -0.00299991 -0.0954389 -0.105777 0.0961595 -0.0935805 -0.021298 -0.0419975 0.00557468 0.0146777 0.0212876 -0.00887453 -0.156244 0.0328308 0.00858724 0.0129907 -0.010598 0.0991904 -0.114599 0.171462 0.052069 0.064229 0.136247 0.0471997 0.00369015 0.13779 0.0734762 -0.0845824 -0.000634905 0.0522287 -0.0952461 0.0654546 -0.0554178 0.0285272 -0.00558294 -0.103813 -0.034535 0.0537139 -0.108379 0.0505913 -0.112397 0.0531843 0.104282 0.0515444 -0.0232628 -0.16006 -0.0631187 0.00847017 -0.0768786 0.0803701 0.0734104 -0.0156675 -0.00731723 -0.126206 -0.0701495 0.00325582 -0.0603274 -0.0299404 -0.0302764 0.0672484 -0.050758 0.0588653 -0.164602 -0.0203634 -0.136281 0.0854079 -0.0245701
満天 0.0117625 0.034679 0.0178043 0.0544759 -0.0268014 -0.0684853 0.0268406 0.0163025 -0.0492034 0.0158817 0.0582879 -0.00705346 0.0584345 -0.0150389 0.0352606 -0.0155614 -0.0331978 -0.0134473 0.0102883 0.00666484 0.0539085 0.00308905 0.0322767 0.0366978 0.0318917 -0.0756258 -0.00654249 -0.0142964 -0.0359981 -0.0329266 0.0528565 -0.0648278 -0.0145436 0.00854473 0.035407 0.00184951 0.0344643 0.0104667 0.0840267 -0.0735358 -0.00306477 -0.0368859 0.0266094 -0.0171322 -0.00540666 -0.0359951 -0.0138181 -0.0194483 -0.0485678 -0.0291123 -0.0334339 0.0279556 -0.0689064 -0.033864 -0.0227674 0.0696147 -0.0426036 -0.0159614 0.0453407 0.0232655 0.0547269 -0.0254474 0.0523728 0.00511606 -0.00576181 -0.0295983 0.0406942 0.033806 0.0245907 0.0497708 0.0162198 -0.0183715 -0.0101622 0.00571213 0.0209485 0.0430638 -0.0144364 0.0309567 0.0107008 -0.0185608 0.0229645 0.00973576 -0.0416617 0.00916507 -0.0784258 -0.0342247 0.00573964 0.0255348 0.0229599 -0.0133556 0.0288997 0.0409568 0.0300886 0.0219076 -0.0375954 0.0399731 0.0624421 0.0320041 0.00519444 -0.00731031
どっこい -0.00573429 -0.0256619 -0.0268032 -0.0567856 0.0353629 0.00237005 -0.0073541 -0.0184473 -0.0289845 -0.033278 0.015768 -0.0264513 -0.0554633 -0.0762937 -0.0408876 0.064436 0.0406133 -0.0418357 -0.055348 -0.0336771 0.00568383 0.00506906 0.0208974 0.0467155 0.000968006 -0.0324034 -0.0350956 -0.0272356 0.0136122 -0.0534052 0.0510256 0.0325001 -0.0387089 -0.0325577 -0.0385448 -0.0642111 0.0216749 -0.0471432 0.0428193 -0.0071758 0.0624903 -0.0336408 -0.0351382 0.0513516 0.07889 -0.0332861 0.039548 0.0419437 0.0267352 0.0614527 0.00959714 -0.0435497 -0.0359683 0.0260615 -0.0041688 0.0258476 -0.0376608 0.0734635 -0.0494977 -0.00940635 0.0658693 -0.0324536 -0.0483416 -0.00862407 -0.0294931 0.00109305 0.0476007 -0.073221 -0.0163364 0.0383069 0.0199665 -0.0311381 0.0226234 0.00950019 -0.0548662 -0.0370398 -0.00625882 -0.0396549 -0.0297612 0.00266145 0.0264819 -0.0209346 -0.00616522 0.0374056 -0.0451018 0.055329 -0.011461 0.070929 0.00702248 0.0563336 0.0654332 -0.0272482 0.0689729 -0.0403185 0.0307102 -0.0569389 -0.0068523 0.0403254 0.00959122 -0.0235271
満身 0.0484594 0.0652565 0.0425605 0.0720058 -0.0544646 -0.0510208 -0.0165542 -0.0278584 0.0638212 -0.0367137 0.00110771 0.0341413 -0.0510997 -0.00282891 -0.0362406 -0.030052 -0.00560634 -0.0391079 -0.0192626 0.0401207 0.00297062 0.0652297 -0.0517742 -0.0685034 -0.0881778 -0.0462248 -0.043091 -0.0154692 0.0378776 0.00230177 -0.00711866 0.00657514 -0.0474189 -0.00761257 0.0678475 -0.0759063 -0.0361391 0.0709471 0.0525327 -0.013661 -0.0616954 0.0349669 0.0134162 0.0904354 -0.0765679 -0.0240483 -0.0754606 0.0208217 -0.0123564 -0.0626297 -0.0465311 -0.0217228 0.048347 -0.0684736 0.0269526 -0.00340016 -0.0244334 -0.0398467 0.0508817 0.0358292 0.0451716 0.00642368 -0.0483142 -0.0399244 0.0496111 -0.047081 -0.0291959 0.0353197 -0.0471497 -0.00676762 0.0105333 -0.0556676 0.0656922 0.0753242 -0.0182638 -0.0510861 -0.0155441 -0.0508545 -0.0133219 -0.0753979 -0.0487471 0.0307223 0.0156633 0.00517104 -0.0287654 -0.0402925 -0.0365037 0.0169293 -0.0367814 0.0777416 -0.0106019 -0.0747046 -0.00288099 0.0313732 -0.000950648 -0.0596166 0.0619469 0.00462648 0.0127869 -0.0392887
ありがとう -0.0414641 -0.00789728 -0.00398611 -0.0452289 -0.0391781 0.0178539 -0.0709682 -0.0324709 0.0323034 0.0315303 0.0466207 -0.0277032 0.0255065 -0.0350845 -0.0246103 -0.000745559 -0.031926 0.0618407 0.0152737 -0.00539279 0.0308418 -0.0230218 0.0257091 0.0577618 0.00221182 0.0211916 -0.0396477 -0.0114141 -0.0341982 0.00089803 0.04288 -0.0111239 -0.00223849 0.0117925 -0.0159863 -0.0247803 0.00517786 0.0178248 0.0280321 -0.0389764 0.0348583 0.00342419 -0.0795217 -0.00311288 -0.0241756 0.0667528 -0.0300271 -0.0275189 0.00335802 -0.0521691 -0.0405607 0.0702795 -0.022816 0.0553732 0.023956 -0.0285197 -0.00720367 0.0123311 0.0478552 -0.0408482 -0.0115481 0.00812614 0.00471089 0.00985558 0.0372777 -0.0632754 0.0358805 0.0708011 -0.0321378 0.032947 0.0209941 -0.00939743 0.021399 0.0447762 -0.0408075 -0.0072544 0.0235094 0.0773147 -0.0370303 -0.021813 0.0347241 -0.0673181 0.0102544 -0.0655715 -0.0638457 0.0283678 0.0798324 0.0752495 -0.0429425 0.0287192 -0.021979 0.0251653 -0.0338646 -0.0247149 -0.0437716 -0.0249447 -0.00622045 -0.00853484 -0.0706713 -0.0181776
野 0.0451967 -0.145697 -0.0539272 0.169097 0.00379473 -0.034438 0.015264 0.0154459 -0.20714 0.0796396 0.13485 -0.0919296 0.172121 -0.0286479 0.0278048 0.0257386 0.0678221 0.0141157 0.114334 -0.0849261 -0.0122421 -0.0555728 0.0546242 0.0803172 -0.146638 0.0152025 -0.0541347 -0.014709 -0.070167 0.0129782 -0.0186056 -0.0208438 0.0290152 0.106052 0.0139046 0.0205248 -0.173739 0.0443946 0.0330005 -0.0578892 -0.109973 0.119053 -0.038437 -0.0565132 -0.0896974 0.0767376 -0.0582345 -0.129989 0.0635709 -0.120199 -0.109524 0.00825395 -0.0320312 0.0433862 -0.111929 0.0916872 -0.088144 -0.00930685 0.131269 -0.0576005 -0.0997157 -0.165154 0.0102805 0.0651659 0.0496358 0.0310718 0.142181 -0.121946 -0.00710495 0.0352156 -0.0101706 0.00466509 -0.0930146 -0.159375 -0.185274 0.169875 0.167301 0.0664605 -0.139536 -0.0587875 0.0658321 -0.147476 -0.0348489 -0.119709 -0.0678706 -0.126134 0.00323645 -0.0636036 -0.0126906 0.00711058 -0.111245 0.0683952 -0.140634 -0.0137177 -0.135606 0.00830724 0.139934 0.0121785 -0.127529 0.0586545
じゃ -0.0105205 0.0478398 0.0257152 0.0193117 -0.0560149 0.012456 0.0772748 0.0288713 0.0387145 0.064684 -0.0687571 -0.00784011 -0.0501057 0.016694 0.0177813 0.0472753 -0.00565976 0.0137071 0.0516015 0.00367652 -0.0326252 -0.0135791 -0.0313454 0.0347576 0.00327221 0.0367287 0.0199114 -0.049072 0.0537752 0.0386728 0.045513 0.0221698 -0.0158462 -0.0780041 -0.00631638 -0.00224213 0.00796346 -0.0410554 -0.0159077 0.0279937 -0.02146 -0.0524762 0.076954 -0.0105768 -0.0254877 -0.0587813 -0.007431 0.0352835 0.00700399 0.0455673 0.00429048 -0.041856 0.0516592 -0.0771126 0.0485335 -0.000145676 0.024092 0.0538889 0.0221834 0.0370724 -0.0264386 0.0621284 0.0470019 0.0342419 0.00318205 0.0333414 -0.0223918 -0.0044383 -0.00339756 -0.0393704 -0.0540554 -0.0413847 -0.0317337 0.0462052 -0.0224947 0.00201663 -0.0539677 -0.0433642 -0.00669042 -0.0327828 -0.00186263 -0.0550089 -0.0554303 -0.034451 0.0628662 0.0731963 0.0452793 -0.0314168 0.00588462 -0.00517423 -0.0231791 -0.0632157 0.0409257 -0.0524018 -0.0591635 -0.0181256 -0.0448115 0.0634757 -0.00276629 0.0051101
希望 -0.0571402 0.00607909 -0.0295323 -0.0571145 -0.0926661 0.0262316 0.058521 0.0194474 0.0124735 -0.0907577 -0.0870852 0.0819865 0.00687179 -0.0526147 -0.0357018 -0.0194438 -0.010934 0.0489107 0.0183636 0.0771993 -0.0719429 0.0371622 -0.0271789 -0.133653 -0.0324043 0.0406755 0.019584 -0.0442389 0.0770109 -0.0496255 -0.0273447 -0.0635099 -0.017937 -0.105811 -0.0300521 -0.0580667 0.0933933 0.0246784 -0.0303339 0.0448939 0.00813501 -0.10012 0.15557 0.0809205 -0.0521585 0.116941 0.0309764 0.119124 -0.0365151 -0.0455848 -0.0281569 0.00546365 -0.00883032 -0.0047435 0.0557122 -0.0163361 0.0132218 0.00973287 -0.0438744 -0.0107795 0.00997946 0.0349909 -0.107503 0.00260845 0.00604257 0.0115448 -0.0290831 -0.0798084 -0.0195065 -0.00131778 -0.0806265 -0.125011 0.0991996 0.0296685 1.46446e-05 -0.051339 -0.0419977 -0.0310563 -0.0181078 -0.0190107 -0.0384857 0.0790116 -0.0319355 -0.0896732 0.0527579 0.0424462 0.10129 0.0812513 -0.0675003 0.0620109 0.0611417 0.0387668 -0.0744077 0.0764425 -0.0421213 0.002557 -0.0230466 -0.0241843 0.113343 -0.0255952
釣り上げ -0.0197165 0.0352202 0.0233037 -0.0102865 -0.0739599 0.0104625 -0.0845043 -0.0414076 0.0929725 -0.0359859 0.00424304 0.145133 0.0691736 -0.0387047 0.0611456 -0.0133848 0.0613842 0.094201 0.0377098 0.120833 0.00920891 -0.0101521 -0.0717272 0.0127669 0.0291766 0.0498604 0.0161625 0.0931955 0.0528521 0.0595147 0.0567826 -0.0255355 -0.0474116 0.0148365 -0.0190045 -0.0127501 0.126633 -0.0218979 0.0195971 -0.045073 0.0229351 -0.0103684 0.0206375 0.0802714 -0.0100923 0.0108023 -0.021581 -0.0693265 -0.0168197 -0.0129031 0.0862314 -0.0736412 -0.0620026 0.0486292 0.0917114 -0.000250266 -0.152057 -0.0174891 0.00680636 -0.0777479 -0.00689496 0.0231925 0.101601 0.0699391 -0.00836528 0.0656616 0.112804 -0.0454179 -0.0527848 -0.00204365 -0.00779128 0.0819131 0.00837382 0.0202246 0.0582417 -0.0054406 -0.0340322 0.0670663 0.0592949 -0.0102997 -0.03585 -0.0372307 -0.101843 -0.0157116 -0.00203586 0.0167856 -0.0347266 -0.0466819 -0.0883554 0.000220165 0.037927 -0.0428815 -0.111167 0.0345387 0.0480652 -0.116294 0.13869 0.00210864 -0.0816768 -0.0651854
はさん 0.00366092 -0.0327563 -0.0662257 -0.0381029 0.0250013 -0.0349079 -0.0314194 0.0562603 -0.0111919 -0.0520578 -0.0320994 -0.0109737 0.0720676 0.037505 -0.0647718 -0.0287416 0.0146988 0.0415883 -0.0579255 -0.00916217 -0.0353587 0.0340562 0.0724865 0.0271473 -0.0402134 0.055884 -0.0687104 -0.037886 -0.036631 -0.0564099 -0.0799392 0.0631488 0.058778 0.0638911 -0.00630731 0.0643103 -0.0259282 -0.0460128 -0.0183232 0.0450522 0.0645277 -0.0372296 0.00406559 -0.0395571 -0.0549286 0.0282218 -0.00914177 -0.0268933 0.00302342 0.0179804 0.022346 0.0264169 0.0508039 0.0107571 -0.045429 -0.0580114 0.00805144 0.0408282 0.00674239 0.0569863 0.0489196 0.0239 -0.0754769 0.0054436 0.0576343 0.0312428 -0.0560399 -0.0111422 0.045379 0.0281231 0.0704686 -0.0156561 -0.0229033 -0.0543058 -0.0251788 -0.0104666 -0.0465001 0.00689207 -0.0237908 -0.0318489 -0.0653227 -0.01649 0.000467158 -0.029666 0.00429236 0.0324992 -0.0681176 -0.0348876 0.0273901 -0.00766063 -0.0335724 -0.0477539 0.00193851 0.0029337 -0.0115212 0.0421479 0.0119453 -0.021946 -0.0308488 0.01202
願い 0.0300908 -0.00339405 0.0798846 0.0969933 0.0411791 0.0208323 0.0483275 -0.0214823 -0.0754615 0.107829 -0.0251277 -0.041605 -0.00757234 0.0793514 -0.00904094 -0.0240205 -0.0615227 0.00428712 0.0654817 -0.0607827 0.121497 -0.0366506 -0.0714395 -0.0713783 -0.0635237 -0.0139746 -0.0222541 -0.128042 -0.054157 0.00882694 0.0735555 0.0551404 -0.0673776 0.109238 0.0909197 -0.00591865 -0.027673 0.0830875 0.110317 -0.0110866 -0.119884 0.106278 0.0319544 -0.0213418 -0.0729465 0.0340635 -0.0357099 0.0491493 0.142356 -0.0733393 -0.112056 0.0898981 0.118542 -0.0236616 -0.0692807 0.125957 -0.00585804 0.0260233 0.101169 -0.0422126 -0.0429253 -0.0555436 -0.0322056 -0.0436886 0.150883 -0.0999189 0.0529173 0.0728093 0.018933 0.0527624 0.0872323 -0.0572601 -0.00156736 0.0527071 0.00355515 0.0679608 0.0306829 -0.0606467 -0.0252285 -0.0261946 0.0550729 -0.0013021 0.106025 0.0283947 -0.00670213 -0.0602083 0.0904237 0.0155009 0.112064 -0.0044177 -0.0648002 -0.00430249 -0.0490226 0.0322038 -0.0833227 -0.138492 -0.120243 -0.052272 -0.0296352 -0.0307382
行き着け 0.0306487 -0.0311247 0.038226 0.015693 -0.025324 0.0431474 -0.0727178 0.043475 0.00531006 -0.000524125 -0.0587222 0.0230137 0.075168 -0.061095 0.0172087 -0.0291677 -0.00787132 0.00595854 -0.027311 -0.0733219 0.0698048 -0.043006 -0.0227686 -0.0298718 -0.0118941 -0.0246321 -0.0201629 -0.018268 0.0270883 -0.0466105 0.0109985 -0.0213672 -0.0105292 -0.00961315 -0.03878 0.0213582 -0.00329255 -0.0168474 0.068768 -0.0291678 -0.00549862 -0.00210657 0.0506349 0.00740737 0.0457686 0.0423963 -0.047155 -0.020539 0.00539206 -0.0596026 0.0105311 0.00013855 -0.0295051 0.0285304 -0.010546 0.0289432 -0.0288457 0.0246591 0.0541769 -0.00685649 0.0664624 0.035033 -0.0396294 0.00744176 0.0237146 0.0521527 0.00986054 -0.0569824 -0.016048 0.0619805 -0.0445492 0.0569902 -0.0374685 -0.0712991 0.0485702 -0.0134027 0.0602495 0.0242815 0.0202887 -0.0518218 0.0267324 -0.0431974 0.012188 0.0240294 -0.0156547 -0.0165533 0.0614762 -0.0593051 -0.0181656 -0.0545465 -0.0295526 0.027402 0.0749942 -0.000711034 -0.0701699 -0.0159398 0.0996598 0.0377391 0.0438319 -0.0550435
前方 0.0586977 0.0450894 -0.00837514 0.0300804 0.0456429 0.0335495 0.0111402 -0.0331971 -0.0290414 0.069333 -0.0223709 -0.00884745 0.066999 0.0787461 -0.00838171 -0.0402567 -0.0412571 -0.0377104 0.0040255 -0.0444501 0.0521665 0.0237598 0.00834938 -0.00209728 0.00987638 -0.0445631 0.00964634 -0.0326145 0.035363 -0.0143583 0.0104366 -0.0825503 0.0178354 -0.00667955 0.0195197 0.0201813 -0.0561301 0.0816105 -0.0319368 0.0329016 -0.00185286 -0.0399164 0.00578828 -0.036665 -0.0497382 0.0776116 -0.0172099 0.0157783 0.0209225 -0.0301212 -0.0440242 0.0121617 -0.0765502 -0.0474795 -0.0475608 0.0704353 0.0203386 -0.0305156 0.0295897 -0.0165372 -0.0589491 -0.0133788 -0.0177582 -0.001012 0.0174806 0.00281965 0.0636066 0.0152234 -0.0672676 -0.0346182 -0.0470464 0.0448697 -0.0130453 -0.0142428 -0.0444451 0.00534279 0.0407561 -0.010003 -0.0115656 0.019265 0.0278331 -0.0715681 -0.0627396 0.0623098 0.0212351 -0.0562616 0.0146958 -0.0144347 -0.0173399 -0.0278417 -0.0175171 0.0612786 0.000809207 0.0136584 0.00705234 -0.0513493 -0.000526719 0.0766369 -0.0470653 -0.0702408
政治 -0.0701466 -0.0857054 0.0289308 0.0212437 0.0398721 -0.00782419 0.0171637 0.00113496 0.0170772 -0.0122703 0.0224064 0.0274751 -0.0624463 0.0540291 -0.0842763 0.0207198 0.000586034 -0.0726859 0.0021224 -0.0359781 -0.0284618 -0.0498934 -0.0439211 -0.0389256 -0.0818317 0.0327677 0.022593 -0.00993514 -0.0755924 -0.0826635 -0.0673637 -0.0113711 -0.0532859 0.0566039 0.0203281 0.0690933 -0.0593487 -0.0147666 0.0443273 0.00100439 0.0169113 0.025175 0.0518547 -0.0390937 0.0298896 0.00998336 -0.0101433 -0.0239233 -0.0153294 0.0429996 -0.0278972 -0.00879741 -0.0187836 0.0139376 -0.0192519 0.0322719 0.0547908 -0.0108645 0.000251272 0.00795347 0.00110271 -0.00611579 -0.0791981 0.0231533 -0.0339723 0.0268542 -0.0672684 -0.0226542 0.0418513 0.0448293 0.035799 0.0831697 -0.0486547 0.028097 0.0136037 0.0622429 0.00656484 -0.000856675 0.0498093 -0.0243031 0.0599019 -0.0341 0.0184793 0.0568335 0.0513564 0.00422019 -0.0435115 0.00253376 -0.0205726 -0.00344102 0.0705419 -0.0570045 0.00384905 0.012146 0.0405045 0.00361793 0.0348446 0.00835623 0.00992522 -0.0291902
柱 -0.0301279 -0.0221813 -0.0643665 0.0517075 -0.0115018 0.0628719 0.0314315 -0.0693738 0.036718 -0.0878416 -0.0507123 0.0456877 -0.0702968 0.0832361 -0.0287222 0.0144619 0.021993 -0.0243667 -0.0520279 0.0112247 0.0472122 0.113149 0.0289784 -0.0837686 0.0180679 -0.0571044 -0.0334831 -0.0413382 -0.00790673 -0.0848252 0.0211377 0.0236673 0.0488237 -0.0660245 -0.0400942 -0.10012 -0.00608735 0.0514631 -0.0302183 0.0807844 -0.0309739 -0.0373721 0.0566197 0.0667596 -0.0383539 0.00612938 0.11594 0.0431281 -0.0775176 0.0112886 -0.017519 -0.0543081 0.0384699 -0.0669108 0.0889765 0.0207275 0.0379417 -0.0305216 -0.072348 -0.00204519 0.0082071 0.00387686 -0.0181793 0.0173239 -0.00421597 -0.0347824 -0.121104 0.0256628 0.0266758 -0.0811173 0.0294841 -0.0802477 0.0967248 0.03578 -0.00912977 0.00102784 -0.0145116 -0.114838 -0.0316095 -0.0298278 0.0529204 0.0532533 -0.00318956 -0.0138925 0.106782 0.0208069 -0.0952486 0.0824044 -0.0684933 0.0117578 -0.00203142 -0.113291 -0.0442505 0.0441568 -0.0702245 0.0192076 -0.0543747 -0.0892727 0.0414856 -0.0263131
行き着く -0.0511934 -0.0586998 -0.139312 -0.106847 -0.0517929 0.107986 -0.0543161 -0.0949377 0.00745657 -0.0966748 -0.12776 -0.0450203 0.0876624 -0.0884585 -0.092919 -0.012227 0.131927 -0.0114398 0.0355963 -0.056086 0.0133206 0.00938434 0.162833 -0.0316941 -0.019016 -0.0836219 -0.0248684 0.0586372 -0.113675 -0.0776368 0.10595 -0.0704574 0.0316493 -0.0046849 0.0289315 -0.122764 0.0224253 0.0821964 -0.00330712 -0.0362559 0.057173 -0.00672714 0.108541 0.0204388 -0.128509 0.0610175 0.0776682 0.0712812 -0.0468413 0.00963316 0.0710825 -0.09736 0.0303618 0.0230892 -0.0654307 -0.105002 0.0308947 0.0309578 0.036624 0.0574135 -0.0248781 0.10691 -0.100343 0.00199462 0.0347142 -0.0631959 0.0987282 -0.0882393 -0.11217 0.0109071 0.0518526 -0.0132887 -0.0995875 -0.026339 -0.0895617 -0.0150314 0.0712284 -0.000684032 0.104734 -0.0701904 0.0609367 -0.134887 0.0731484 -0.115618 0.061996 0.0820999 -0.0377003 -0.0107521 -0.0404183 -0.0615581 0.140354 0.0227112 -0.024963 0.028815 0.0432469 0.0226304 0.114478 0.0490282 0.0286576 0.0481562
すかし 0.0349118 -0.0199876 0.017652 -0.0447395 0.0220672 0.0208357 -0.00939056 0.0225934 -0.0259651 0.0572828 0.100498 0.012147 0.0328186 0.0421244 0.0321945 -0.0152909 0.00248742 0.0322316 0.0981588 0.0207136 -0.0260216 0.00921836 0.0824903 0.0813111 0.0106361 -0.0735874 0.0403414 -0.00575762 -0.0303506 0.100524 0.067806 0.00500875 -0.0421408 0.0813196 0.015997 -0.0793962 0.0349808 0.0829028 0.0272659 -0.0655162 -0.0512835 0.00534605 -0.0948304 -0.00606392 -0.0335149 0.026337 -0.0103675 0.00519105 0.00495943 -0.0821187 -0.0193604 0.0581452 -0.0988692 0.0170738 -0.0389072 0.0411574 -0.0790685 -0.0951618 -0.0124821 0.00693634 0.00256069 -0.032532 0.0383773 0.0355832 -0.0257226 -0.0772012 0.0626363 0.0434444 -0.0759371 0.0652713 0.0232494 0.0922916 -0.0176216 -0.0303747 -0.0261802 -0.00819974 0.0198393 0.0925945 -0.0315322 -0.0823129 0.0787914 -0.0175058 -0.0723337 -0.00172616 -0.00818492 -0.0494345 0.0497758 -0.0688519 0.0128458 0.00547988 0.0220508 0.0744123 -0.0988011 -0.0497577 0.00240775 -0.0542553 0.0911104 0.0181934 -0.0915359 -0.069335
深く 0.012757 0.0562086 0.013716 -0.0833114 -0.0133168 -0.0322042 -0.0221282 0.00884749 0.0669537 -0.0290924 -0.0243723 -0.025224 -0.0251563 -0.0299578 -0.0173425 -0.0183501 -0.0574293 -0.0392021 -0.0425475 0.0629986 -0.0320971 -0.0702788 -0.024662 -0.00199293 0.0448195 -0.015394 -0.049811 -0.00569183 0.021036 0.0227318 -0.0380483 -0.0114663 -0.0244977 -0.0329026 -0.0490675 -0.0166216 0.0333774 -0.070042 0.0396643 -0.00915369 0.000115167 0.0503552 0.0596307 0.0575435 0.0171992 0.0101883 0.0125751 -0.0129612 -0.0608645 0.0196838 0.0812552 -0.0012414 0.021091 0.0476254 -0.0466773 -0.0282267 0.0126025 0.0523695 0.0190166 0.0397797 0.0368801 0.0279887 0.022768 0.0749339 0.0274378 0.0116166 0.00611669 0.0252023 0.0536523 -0.0227957 0.00964017 0.027485 -0.0241307 -0.000405856 -0.0145935 0.00104608 -0.0195737 -0.0557827 0.0189293 0.0501258 -0.00897824 -0.00945844 -0.0446864 0.00324185 0.0368237 -0.0484359 -0.0363431 -0.0526865 0.0267148 -0.0124747 0.0855076 0.0665397 0.0639923 -0.0109925 0.0683788 0.0807536 -0.0186999 0.0375177 0.0316351 0.0394508
なんでも 0.00691573 -0.017308 0.0147426 -0.0295174 -0.0420878 0.00970703 0.0666146 0.0212065 -0.0110281 0.0144284 -0.0160912 0.0251377 0.0509818 0.017987 0.0279869 -0.0328155 0.0359182 0.0415543 0.0485818 0.0461044 0.021786 0.0604578 -0.067589 -0.0514324 -0.0210389 -0.0437744 -0.0405876 -0.035356 -0.0213197 0.0650098 -0.0290357 0.0679677 0.0500259 0.0220899 0.0118159 0.024493 -0.0472506 0.00186417 0.0517039 -0.0133283 -0.0326011 -0.0222964 0.0244801 -0.059073 0.0683803 -0.0480084 0.0141691 -0.0449101 -0.00355863 0.0516564 -0.00461449 0.020681 -0.0436834 -0.0160516 -0.0204154 -0.0216464 -0.0116607 -0.0605342 0.0273557 -0.0149716 0.0107103 0.0565902 -0.0308165 -0.0259264 -0.00206943 0.055672 0.0372419 -0.0334381 -0.03595 -0.0326963 -0.0586335 -0.0283261 0.0377742 -0.060539 -0.0572177 0.0536213 -0.0317126 -0.00375907 -0.00391361 0.0588715 -0.0100893 -0.0541709 -0.00671328 -0.00544652 0.0588107 -0.00124306 0.063118 -0.0248933 0.0551407 0.0318845 -0.00394222 0.0318786 0.0668531 -0.0288108 -0.0520079 0.0586219 -0.0126104 0.0464388 -0.0202634 -0.0329946
絞め殺し 0.0290866 0.00105054 -0.0362113 -0.0261387 -0.0224737 -0.0174587 -0.0158535 -0.071075 0.0349546 0.00405125 0.055426 -0.0055676 0.0578347 -0.0769088 -0.0302451 0.0812861 -0.0719694 0.0108216 -0.0472724 -0.00900046 -0.000685552 0.0359993 -0.01023 -0.022094 -0.0609863 0.0291409 -0.0149315 -0.00843207 0.0080408 0.0118532 -0.026478 0.0568432 0.0515879 0.00421843 0.0163434 0.00120481 -0.0229319 0.0446653 -0.0210797 0.0123266 0.024014 -0.0308715 -0.011047 -0.0145525 -0.0189766 -0.042958 0.0407525 0.0321813 -0.00857335 -0.0808865 -0.0128895 0.0177971 0.0118472 -0.0336174 -0.0712841 -0.0376706 0.0679069 0.027677 0.0372782 0.0262993 -0.053548 -0.0313144 -0.0340022 -0.030571 -0.000520516 -0.0051514 0.0379367 -0.0121655 0.0364463 -0.0499213 0.0609947 0.00670061 0.0344576 -0.0608822 -0.00189497 0.0417457 0.0035887 -0.0614204 -0.0578953 -0.0210639 -0.0721425 0.00907962 -0.0393594 -0.0145806 0.0751503 -0.0211181 0.0486924 -0.0768948 -0.0125963 0.0342617 -0.0131855 -0.032519 0.0131238 0.0627538 -0.00382242 -0.0491604 -0.0627789 -0.0206595 -0.0359483 0.064628
深い 0.0192498 0.0370373 0.0414806 -0.018945 0.0211532 0.0076512 -0.0662711 -0.0103539 0.0423415 -0.0315517 -0.0794107 -0.0254376 -0.0781651 0.0455788 -0.00517005 0.0108465 -0.105802 -0.0524133 -0.0835917 0.0610261 -0.0318185 -0.0226512 -0.0959388 -0.0533777 0.0642381 -0.00134455 0.00770619 0.0340551 0.039931 0.0130801 0.0444117 0.0234777 0.0155432 0.0270019 0.0492873 -0.0722841 -0.0154967 0.0515012 0.00555487 -0.0389964 0.0391494 -0.0158113 0.0377514 0.0595316 0.0733266 0.0386786 0.0560951 0.0129161 -0.0324611 -0.0112971 -0.0593947 0.00818503 0.0146496 0.0109291 -0.047133 -0.000451979 -0.0549787 0.0815271 -0.036893 0.004006 0.0558593 -0.0111367 -0.0356994 0.0326962 0.0289487 0.00520138 -0.00635194 0.0363877 -0.0287333 -0.00136558 -0.0188733 -0.0347179 0.027511 0.105843 -0.0110377 -0.033139 -0.0267392 0.00416363 0.029261 0.00853569 0.0227212 0.10898 0.0326215 0.00148693 0.0763166 -0.0589051 0.0735724 0.0854835 -0.0668241 0.0696489 0.0848889 -0.0326152 0.0417608 0.0259854 -0.0467276 0.0159233 -0.0586201 -0.022451 -0.0219899 -0.0145508
妹 0.000715061 -0.0994142 0.10229 0.0281333 -0.00614525 -0.11418 -0.126794 -0.164483 -0.0948634 0.101094 -0.0532588 -0.0994818 -0.0540108 0.222352 0.104921 -0.0986935 0.116612 -0.029188 0.0373869 0.0110498 -0.0825662 0.00679114 -0.107122 -0.17781 -0.0989044 -0.058499 -0.124354 -0.185366 -0.112338 -0.0362905 0.0950644 -0.086321 -0.0795527 -0.0443598 -0.061946 -0.0930074 -0.0498737 -0.0134017 -0.0349557 0.055218 -0.111931 0.0124433 -0.0623055 0.147336 0.0535932 -0.0517416 -0.0441249 -0.0503309 0.0915384 -0.0606918 -0.0360166 0.142155 -0.054822 0.0605714 0.110513 0.0166295 0.102829 -0.0697989 -0.0445848 -0.0374782 0.0852612 -0.00824994 -0.247153 -0.0791233 0.198691 -0.0148243 0.0115531 0.157132 -0.0752475 -0.0816995 0.108257 0.148822 -0.0312637 -0.0447913 0.00315575 0.195074 0.085788 0.0109796 -0.100646 -0.0143454 0.033339 0.042834 0.0601059 0.00293935 -0.0111272 -0.167796 0.00202652 0.134555 0.0736642 0.13607 0.0293656 -0.0165651 -0.0375421 -0.0488219 -0.0712822 0.172656 0.26219 0.0484904 -0.0773181 -0.151396
秘密 0.0305094 -0.0313638 0.0522993 0.0094359 -0.0320885 0.0255624 0.041694 -0.0197152 -0.0384496 0.0737634 0.0496315 -0.000995483 -0.00821738 0.0605392 0.0120763 0.0635628 0.0548236 -0.0135862 0.0849684 -0.0304016 -0.0186854 0.0299813 0.101712 0.0233319 -0.0174155 -0.000856015 0.0182834 -0.0103101 0.0410881 -0.0576249 0.050917 -0.0797373 -0.0171008 0.0424405 0.0821807 0.0285887 -0.0444814 -0.0136298 0.0178119 -0.071903 0.0369932 0.0731579 -0.0633934 -0.0265164 -0.0454699 -0.0449998 -0.0395506 -0.0452927 0.00871561 -0.0535529 -0.0325982 0.0118252 0.0155658 0.0696023 -0.04395 0.0201077 -0.0414813 -0.0638078 -0.00367023 -0.0194881 -0.056823 0.013475 -0.00499791 -0.0446903 0.0805866 -0.0415687 0.0235701 -0.00202198 0.00779772 0.0078938 -0.0119554 0.0709367 -0.0515376 0.0125525 -0.035478 0.0266842 0.0910116 0.08138 0.0226223 -0.0670704 0.0460167 -0.0845037 -0.0294016 0.025136 0.00877723 0.0470347 -0.0400762 0.00261437 -0.0147429 -0.0107134 -0.0051073 0.0854434 0.0536148 0.00357458 -0.0440035 0.0567333 -0.0298968 0.0171628 -0.00630683 0.00071139
西 -0.02379 0.004302 0.00260998 -0.0510052 -0.0622801 -0.0425121 -0.0444743 0.0574704 0.00105671 -0.0497741 0.0106918 -0.00849673 -0.0833548 -0.05719 -0.00781052 0.0148837 -0.0753485 0.0154305 -0.0902801 0.0317149 -0.00363105 0.00843746 -0.0533397 -0.06126 -0.0133915 0.0844342 -0.0191351 -0.00253051 -0.0412267 0.00992551 -0.0329377 -0.00663406 -0.0435403 -0.0414905 -0.0584986 0.0248956 0.0645764 -0.0703971 0.0171062 -0.010114 -0.0082017 -0.0560453 0.0593416 0.0182484 0.0317746 0.0616965 0.0307269 0.0154742 -0.013274 -0.0537551 0.0407104 0.0394785 0.0204439 0.0141758 0.0656314 -0.0768806 -0.00278981 -0.0261213 0.0055318 -0.0223247 -0.0172805 -0.0231273 -0.0109474 0.0200647 0.0032395 0.0516332 -0.0250663 0.0226623 0.0804646 -0.044938 0.0662462 0.065723 0.00332945 -0.0357002 0.0164361 -0.0211257 -0.0762065 -0.0323733 0.0530593 -0.0262733 -0.0474576 0.0547778 0.0278471 -0.0599726 -0.0255657 -0.0173448 -0.00518383 -0.00611587 0.0163024 0.0208752 0.078377 0.00894051 -0.0168614 -0.00779861 0.0612779 0.0327499 -0.0152531 0.0528629 0.0307485 -0.0343913
うんと 0.00291904 -0.0223124 -0.0188034 -0.0212991 0.00934944 -0.0160089 -0.0819736 -0.0194855 0.0346946 -0.0117462 0.0438769 -0.014076 0.0672921 -0.0577119 0.0810986 0.0628774 -0.00158105 -0.0230798 0.00796743 0.00474174 0.0225544 -0.016064 -0.0618882 0.0422269 0.0737575 0.0522949 -0.00622476 0.049856 0.0657354 0.0473075 -0.013204 -0.00589679 -0.0253696 0.0143246 -0.0661654 -0.0496879 0.0699407 0.044736 0.050485 -0.0472238 -0.00181142 0.0156785 -0.0256084 0.060132 -0.0428026 0.0815028 0.0332785 0.028441 -0.0755972 0.017618 -0.0375173 0.0192415 -0.0584199 0.0463735 0.0596807 -0.054366 0.0192091 -0.0333529 0.0133184 0.0282165 0.0490319 0.0958 -0.0143121 0.081334 0.043892 -0.00813319 0.023883 -0.0666187 0.0435093 0.0458178 0.00326508 -0.00373721 -0.0586915 -0.0353697 0.0154846 0.0217157 0.0471586 -0.0418692 0.0464307 0.0111141 -0.0518922 0.072022 -0.0297154 0.00361104 0.00642227 -0.0462496 0.0267573 -0.0624901 -0.0546807 -0.00992839 0.0622912 0.00985355 -0.0513512 -0.0175171 0.0762696 0.0230263 -0.0370821 0.081569 -0.0374666 0.0443646
たく -0.0239453 -0.0167957 -0.0654447 0.0190169 -0.0437171 0.00988582 0.029317 -0.0216642 -0.0220122 -0.0473106 -0.0564504 -0.00103913 -0.0137461 0.0132876 0.0197764 0.0420072 -0.0154779 0.0617462 0.0189403 0.0366078 0.0382672 0.014413 -0.0328596 0.0510338 -0.00327139 0.00978652 0.0143286 0.0510622 0.0830984 -0.0809697 0.0310856 -0.0342729 0.0520889 -0.00506898 0.018032 -0.0256328 0.00574744 -0.0514898 -0.00534878 -0.0381432 0.0102857 -0.0178627 -0.00753398 -0.0492047 0.0258466 -0.0481517 0.00933545 0.00172438 0.0212243 0.0236388 0.0282769 -0.0566772 0.00898955 0.024795 -0.00632876 -0.0597115 0.0490779 0.0389807 0.0101302 0.0335154 0.0259227 0.0719602 -0.0402774 0.0274695 -0.0622502 0.0309063 -0.0585815 -0.0195302 -0.0416133 -0.0372334 0.0589443 -0.0779081 -0.00745662 0.00760739 0.0514527 0.0318722 -0.00161821 -0.0551048 -0.0190076 -0.0731996 0.028783 0.0614716 -0.0319926 -0.0662066 -0.0509751 0.0511001 -0.0211321 0.0272149 0.0379775 -0.0663251 0.0585214 -0.00120107 0.059326 0.0382064 0.00592775 0.0252338 -0.0695588 -0.0391282 0.0201318 0.0203143
路 0.0101471 0.10007 0.00490459 0.0454439 -0.117864 0.188538 0.117752 -0.119644 0.0672453 -0.0468407 0.0714029 0.0411794 0.0160982 -0.0454105 -0.0337556 -0.0402841 -0.155827 -0.0285777 -0.0479165 0.027934 -0.0895849 0.0217732 -0.0825458 -0.240523 -0.0113301 0.000345029 0.00418018 -0.0663431 0.00753902 -0.174186 -0.117732 0.0497519 0.102852 -0.0586609 0.0364261 -0.0541849 0.0037299 0.0172303 -0.0753772 0.160071 -0.109027 -0.0277938 0.137475 0.10917 -0.1095 0.207009 -0.00478773 0.169413 0.0446471 -0.0393919 -0.0355615 -0.126514 0.282609 -0.122477 -0.0714498 0.0594284 0.0368178 0.0954885 -0.0858877 0.132361 0.140932 0.0164581 -0.0781912 0.0540358 0.0396925 0.023754 0.0775844 -0.15904 0.0879532 -0.0728471 0.0862327 -0.201026 0.0928943 0.0694075 -0.00735627 0.177055 0.0171081 -0.00505352 -0.0944969 -0.052153 -0.0530034 -0.0349926 0.121537 -0.0878234 -0.0229456 0.0405872 0.0825768 -0.0143989 -0.171943 -0.191686 0.00356841 0.100946 -0.0625221 0.186809 0.0434145 -0.0388078 -0.186391 -0.00847344 0.0423263 0.101205
既に -0.111132 0.154688 -0.174905 0.0325612 -0.146715 0.118447 0.0587934 -0.0418661 0.184856 -0.161801 -0.0838764 -0.0504002 -0.205339 0.0028394 0.000187052 0.17195 -0.0732988 -0.00978227 -0.121602 0.162635 -0.160723 0.133943 -0.225176 -0.101759 0.118986 0.0812994 0.177691 0.11583 0.210839 -0.226921 -0.137843 0.0886834 0.137669 -0.174219 -0.17516 0.0488166 0.035824 -0.166068 -0.14687 0.233017 0.127697 -0.156824 0.168974 0.183671 -0.0418883 -0.0865996 0.0935682 0.107364 -0.0827136 0.136828 0.261064 -0.130056 -0.0892406 -0.132421 0.182488 -0.160185 -0.00771772 0.11604 -0.161699 0.122959 0.183914 0.135084 -0.258065 0.180179 -0.133214 0.247403 -0.127043 -0.0636602 0.132858 -0.13375 0.0867769 -0.00790536 0.0900285 -0.065099 0.1131 0.0541013 -0.0546516 -0.0359413 0.0134537 0.134281 -0.181786 0.111399 -0.141555 -0.10688 0.085429 0.0896518 -0.0746776 0.105536 -0.166238 0.0472683 0.0861121 -0.151263 0.0211054 0.156314 0.0416147 0.285633 -0.0410939 0.072646 0.0965196 0.0851128
たい -0.0329663 0.0185045 -0.087227 -0.191717 0.120563 0.239323 -0.124712 -0.0546641 0.123312 -0.152456 -0.0710492 0.00617007 0.124826 -0.155909 0.0273518 0.165918 -0.13514 0.0149043 -0.129205 0.131012 -0.0734519 0.148732 -0.0807713 -0.0139675 0.109893 0.23865 0.201972 0.0459815 0.237635 -0.150939 -0.110342 0.135012 0.06328 -0.124663 -0.161372 0.0568767 0.101781 -0.019394 -0.225896 0.0725437 0.132902 -0.0522941 0.138301 0.0625114 0.00483954 -0.0211735 0.244465 0.147747 -0.277539 0.0368976 0.0374051 -0.157948 0.113675 -0.00122752 0.0212532 -0.0684004 0.0443238 0.0406523 -0.0947518 0.0432262 0.0892028 0.11039 -0.0642446 -0.0398206 -0.179267 0.0311526 0.0434473 -0.245895 0.0383619 0.110653 0.138707 0.120996 0.134257 -0.00491941 0.129717 -0.0491976 -0.115705 -0.219552 -0.0223852 0.168057 -0.1691 0.0811246 -0.103144 0.0239438 0.0716205 0.174255 0.0818276 -0.120545 -0.172434 -0.0604897 0.0673257 -0.0326578 -0.0224503 0.224486 -0.0492574 -0.0683122 0.0516108 0.00869896 0.0032885 -0.0454494
ゆらゆら 0.0166918 -0.0343056 -0.0598704 0.0069118 -0.0385374 -0.00609025 -0.0347294 -0.0477737 -0.0123761 -0.0680299 0.00866066 -0.0273073 0.0930202 0.0133897 0.0104592 0.0104766 -0.0257213 -0.0793769 -0.037526 -0.0552774 -0.0915442 -0.0367047 -0.0499081 -0.0580208 -0.00206037 0.00209911 0.029461 0.0550851 0.00838894 0.0125927 -0.00817039 0.0317707 -0.0806778 0.0687901 0.0517198 0.0471234 -0.0141767 -0.00179124 0.0788758 0.017731 0.00820179 0.101606 -0.00899499 0.00766549 0.0343281 0.0474009 -0.102291 -0.0388352 0.044296 -0.0347472 -0.0720168 0.0430491 -0.0914601 0.0111522 -0.0282961 -0.100143 0.0381455 0.0548756 -0.0414219 -0.0733045 0.0523466 0.0197565 -0.0326205 -0.0274737 0.00384019 0.067164 -0.057255 -0.0372057 -0.00988369 0.0996365 -0.0269129 0.0515221 -0.124096 0.0149935 -0.051944 -0.0641446 0.0881684 -0.0453515 0.0146429 -0.02023 -0.0158154 0.0536547 -0.0340462 -0.0329839 0.000764468 -0.0113656 0.0683546 0.0211724 -0.0290869 0.111373 0.0597259 -0.018208 -0.0501636 -0.0408867 -0.0910243 0.0756723 -0.000511449 0.0121164 -0.0430837 -0.0211956
どうにか 0.00805088 -0.0616818 0.109025 0.06097 -0.0901309 0.0466433 -0.0437625 0.091197 -0.00553215 0.100869 0.0438722 -0.0322235 0.0820451 -0.125208 0.0311611 -0.0596985 -0.0191992 0.0488858 0.0418713 0.00262777 -0.0900975 -0.0273463 0.0223709 0.0495713 -0.0487674 0.0586694 0.065362 -0.00229687 0.0338608 -0.0239658 -0.0205535 -0.0258132 -0.0265002 -0.0144084 0.000276214 -0.0286027 -0.0320927 0.0286586 0.0161655 0.0225336 -0.0822012 -0.0194476 -0.0492927 -0.0913891 -0.0471028 0.0828026 -0.000843401 -0.0315453 -0.0026015 -0.0588614 -0.0446327 0.0892905 -0.088214 -0.0337823 -3.29679e-06 0.117353 -0.0875509 0.0609149 0.0806017 0.0533558 -0.00540964 -0.0111211 0.0452006 0.121379 -0.0093705 0.0572914 0.123777 -0.110112 -0.0882864 -0.0165691 0.0116607 0.0153078 -0.0127299 0.00337891 -0.00949851 0.0453139 0.0987079 -0.0202278 0.0445671 -0.113778 0.096665 -0.103471 -0.0830491 -0.115477 -0.0477639 -0.0958365 0.123416 0.0285632 -0.0269525 0.0242585 -0.0544947 0.00287789 -0.0732797 0.017765 -0.0062361 -0.0570398 -0.041921 -0.000597603 0.00935875 0.0535816
最も 0.0477097 -0.00477886 0.0874722 0.0416029 0.0195543 -0.0500522 -0.0682941 0.0463384 -0.0729916 0.0397267 0.0475158 0.0320154 -0.030961 0.0260814 0.115097 0.0221556 0.0587011 0.03226 0.0406637 -0.0655692 -0.0287524 0.00300039 0.0477735 -0.00812903 0.0186551 -0.0302075 0.0534476 -0.0417978 0.0156038 0.0332679 0.0587508 -0.0755244 -0.0664826 -0.0285952 -0.0294595 -0.0915734 0.0433443 -0.0354953 -0.0144034 0.010213 -0.0644364 -0.0651322 -0.0883538 -0.0479656 0.0798574 0.0837159 -0.0438437 -0.107806 0.0256239 -0.0687783 0.0196067 0.0525796 -0.0590342 -0.0551608 0.0533254 0.046343 -0.0489899 -0.0752043 -0.0683236 -0.024639 -0.0400282 0.0193149 -0.0336557 0.0246636 0.0488133 -0.00423544 0.027837 0.0825787 0.0247561 0.0381579 -0.110683 -0.0179943 -0.0111801 0.0672609 -0.0190953 0.0160119 0.0120639 -0.00802647 -0.0506036 -0.0625063 0.0181867 -0.0836742 0.0140553 0.0024564 0.00298824 -0.0436645 0.0890993 -0.00917382 -0.0267579 0.00433611 -0.022264 0.0372622 0.0318247 -0.0182591 0.0473383 0.0589502 0.0945695 0.0124345 -0.0507816 -0.0231765
祭壇 0.0636318 0.0473809 -0.0288611 0.125459 -0.160806 0.135576 0.011048 -0.0544769 -0.0762409 -0.0937874 0.0342464 -0.0599453 -0.0876437 -0.0533936 -0.0531365 -0.0494947 -0.168298 0.105976 -0.0364666 0.0183722 0.00289734 -0.0495634 -0.0386066 -0.078511 -0.087062 0.0375134 -0.0509917 -0.142203 0.0123836 -0.0415292 -0.0490208 0.041243 0.0098294 -0.0474235 0.0978114 0.0269837 -0.0061956 -0.0394317 -0.0947378 0.0274395 -0.122713 -0.0671177 0.111025 -0.0240782 -0.0735051 0.100701 -0.010518 0.0504375 -0.0605301 -0.0643419 -0.0583651 -0.0289425 0.155511 -0.112984 -0.0944779 -0.0287867 0.0118156 0.167805 0.0371285 0.139561 -0.0321539 -0.122395 -0.100183 0.0961933 0.0415148 -0.00421049 0.113471 -0.0999622 0.0917269 -0.0412399 0.0942846 -0.16288 0.0952992 0.0376757 -0.0409329 0.0477733 0.0469896 -0.114824 -0.156942 0.047321 -0.0244603 0.103517 0.013939 -0.111927 0.0780493 0.00351004 0.197828 0.0904834 -0.00815894 -0.124168 -0.129326 -0.0506026 -0.178543 0.139898 -0.03167 -0.0368053 -0.0574702 -0.0410576 0.0923663 0.0958874
さん 0.0122519 -0.0114896 0.0101298 0.00883654 0.034421 -0.00640216 0.0518376 -0.0263388 0.0564623 -0.00230609 0.0253877 0.0112608 -0.0494771 -0.0577311 0.0213599 -0.00930544 -0.0473395 0.0423591 0.0179467 0.0772174 0.00146593 0.0830466 -0.0313738 0.00917931 0.0528294 -0.00872 -0.0225826 -0.00531981 0.0551428 0.000973394 -0.0368021 -0.0429966 0.0134605 0.0154576 -0.0386994 -0.0498402 -0.015667 -0.0893344 0.0243569 -0.00245054 -0.0209593 -0.0858722 -0.0304626 0.0119432 0.0778744 0.0553258 0.0571954 0.0512506 0.0300829 -0.0420593 0.0162742 -0.0586627 -0.0673956 -0.0417169 0.000483782 -0.0844214 -0.0105725 -0.0157812 -0.0250923 -0.00370962 0.0878254 -0.0209373 -0.0575781 -0.0186223 0.0288027 0.0762223 0.0278359 -0.0299258 0.0456637 -0.0462996 0.0430644 -0.0224309 0.0409821 0.0668739 0.00246372 -0.0345436 -0.00782025 0.0676629 0.0524591 -0.0387793 -0.00811662 -0.0268619 0.00203996 -0.0344518 -0.0782137 0.0578819 -0.0195996 0.0606106 -0.074031 0.0993873 0.0351354 0.025911 -0.0533323 -0.0253218 0.00558899 0.0363902 0.0656073 0.0461648 -0.0354372 -0.0143467
取り直し 0.115393 -0.10626 -0.101522 0.0646637 0.17445 -0.0832419 0.0310972 -0.136643 -0.121928 -0.127601 0.121986 -0.108402 0.0774015 0.0542714 0.025166 0.158943 0.02539 -0.147198 -0.0759495 -0.103924 0.0938338 -0.0427801 -0.0139284 0.0753658 -0.187268 0.059207 -0.0170835 -0.133724 -0.119922 0.0536122 -0.00425006 -0.0601945 -0.0869387 0.198154 -0.054161 0.195494 -0.138738 0.137758 0.011788 -0.0618791 -0.0171234 0.155746 0.0360566 -0.164353 -0.175772 -0.212588 0.103141 0.0583059 0.0260759 -0.0845047 0.000436748 0.00390555 0.103112 0.173281 -0.0778124 0.143741 0.181521 -0.13973 0.0178573 -0.0798651 -0.0314607 -0.0926322 -0.0628071 -0.159539 0.0702749 -0.150449 0.0931903 0.0641704 -0.00135385 0.0562238 0.163029 0.0546099 -0.1046 -0.148633 -0.144918 0.0467509 -0.0388415 -0.175753 -0.215299 0.0938609 0.131675 0.131032 0.188545 0.157835 -0.0791086 -0.0969098 -0.14335 -0.118218 0.0855622 -0.165904 -0.0835646 -0.00482314 -0.0557266 0.0815316 -0.0696873 -0.00056581 0.0093372 -0.173333 -0.118093 -0.0926572
たて 0.0173221 -0.0161575 -0.0827641 -0.0487435 0.0805293 0.0726972 -0.118772 0.0178375 0.0794232 -0.0388973 0.0510134 0.0025195 0.0701332 -0.0318587 -0.0657837 0.0586456 -0.136481 -0.0878912 -0.121369 0.0923577 0.0341198 0.044152 -0.0539767 -0.0403904 0.0908857 0.0278563 0.0232516 0.0152746 -0.00927604 0.057867 -0.0850061 0.0689972 -0.0554607 0.0221812 -0.0227989 0.133867 0.0961669 -0.0297241 0.0473946 0.0305493 0.0976032 -0.0138132 0.0742995 0.0327678 -0.0810041 -0.0405822 0.0931679 0.10975 -0.0325706 0.0636726 0.0441109 -0.0690752 0.0181384 0.0644204 0.0142644 -0.00987424 0.0584594 -0.0610747 -0.0764334 -0.00723436 0.0231286 0.099799 0.00401119 -0.0659364 0.0245552 -0.0512034 0.0768908 -0.0986389 -0.0198095 0.0586296 0.0851727 0.0408027 -0.100727 -0.0793118 0.111039 -0.00432198 -0.0703557 -0.0926423 0.00137197 0.161384 -0.0642267 0.00577185 0.0365793 0.041959 0.101066 -0.0423571 -0.10971 -0.0849559 -0.0252279 -0.0838965 0.0342315 0.0204733 0.0313469 0.143714 -0.016755 0.11406 0.0150132 -0.0450597 -0.043186 -0.0281641
たち 0.0997312 0.102966 0.144402 -0.0392813 -0.0880938 0.0267636 -0.0139002 -0.0246729 -0.0273564 0.0919734 -0.0379178 -0.113473 0.00707548 -0.0621639 0.102249 -0.11484 0.0227802 -0.0303086 0.0633866 0.128683 0.0280454 0.102019 -0.14601 -0.272458 0.107237 0.128671 0.0589664 -0.0811182 -0.0483062 -0.139072 -0.0878295 0.0516517 0.0788017 -0.0972909 -0.118204 -0.014414 -0.0831452 -0.0607723 -0.0806843 0.123912 -0.039007 -0.128518 0.0398631 0.058836 0.160759 -0.0876793 -0.15011 -0.0749887 -0.00508215 0.0452091 0.0452123 0.0925297 -0.00785022 -0.0238235 0.082237 -0.0149454 0.1354 -0.00902891 -0.152363 0.0659283 0.0628112 -0.0710949 -0.339983 0.0514221 -0.0200267 0.00812183 0.0488565 0.133901 -0.0315272 -0.107183 0.0566576 0.122301 0.113875 0.037616 0.154098 0.00172466 -0.0757009 -0.107724 -0.0173866 0.00457468 -0.0991982 -0.060807 -0.0412475 0.109023 -0.0143938 -0.148735 0.197976 0.0862506 0.047493 -0.0393216 0.0287405 0.0538069 0.0602338 0.0696611 0.0389802 0.237145 0.0758361 -0.0104627 -0.0479044 0.0182596
ただ 0.0107725 -0.0491972 0.00889922 0.0812969 -0.0284526 0.00656496 0.0208675 0.0210012 0.00682957 0.081708 0.0123092 0.113692 0.0831904 -0.081589 0.0731796 -0.0528691 0.0765522 0.054279 0.060552 -0.0555911 -0.108136 0.0383397 0.0335997 0.0288671 0.0238219 -0.0247391 -0.0129602 0.114092 -0.00313945 0.026124 -0.0518322 -0.0708829 -0.0402973 0.00858283 0.0689911 0.0076688 0.0279213 -0.00764295 -0.0100807 -0.045142 -0.0176799 0.0304904 -0.0643487 -0.0511924 0.0233955 0.0433783 -0.0466163 -0.0268658 0.051364 0.0419816 -0.0185606 -0.00763274 -0.0834118 0.00902565 0.0388639 0.0135729 0.00348183 0.0151377 0.0736179 -0.00137834 -0.0443162 0.0457682 0.100047 0.0041605 0.0220575 -0.0452915 0.0841473 -0.0107962 0.0139126 0.0289344 -0.0428374 -0.0269843 -0.0777695 0.0917853 -0.0894529 -0.0404125 -0.0448274 0.0882634 0.0610856 -0.063765 -0.000244956 0.027881 -0.059726 -0.0602947 -0.0731745 0.034971 0.0876227 0.0641016 -0.000656275 0.084634 -0.0103089 0.023037 -0.0630028 -0.00727847 -0.0125919 -0.0754051 0.0271089 0.102831 0.0201969 -0.0193684
こんど -0.0359981 0.0684956 -0.0180352 -0.000428819 -0.0354809 -0.0463943 -0.0256542 -0.0442608 -0.0321414 -0.0323402 0.0957514 -0.0104879 0.00225005 -0.00255099 0.0445564 -0.0308798 -0.0333173 0.0169021 0.0151107 -0.0279502 -0.00585491 0.0524665 -0.0540464 -0.0857758 -0.0350942 0.0260129 0.0982348 0.0896296 0.015674 -0.0242036 -0.0701589 -0.0404118 -0.010159 0.025313 0.0125172 0.0227151 -0.0576299 -0.0745583 -0.0397691 -0.0202528 0.0125925 -0.0204221 -0.0719765 -0.049559 0.0488715 -0.0019359 -0.0353128 -0.0968976 -0.0201689 0.0205313 -0.0260077 0.0546786 -0.0534855 0.0419914 0.040064 -0.118073 -0.0234428 -0.0577642 -0.0736062 0.0288041 0.0150198 -0.0978853 0.00839351 -0.0363756 0.0651023 0.0825354 -0.00489283 0.0763852 0.0325254 -0.0904301 0.0357786 0.062263 -0.0696212 -0.0626543 0.016018 0.0465208 -0.0563891 -0.0398654 0.0297891 0.0568824 -0.0254498 0.0706609 0.0100969 0.0375145 -0.117179 -0.0543316 -0.0321121 0.040468 0.0208986 0.128783 0.10285 -0.0987389 -0.0556048 -0.00406968 -0.0640046 0.0259441 0.0590185 0.0449282 -0.0415673 0.0255583
野原 -0.0551632 -0.0510826 -0.010922 -0.011208 0.0837564 0.0624802 0.0651226 0.0143135 0.00412381 0.0119412 0.00142287 0.0240434 0.0915924 -0.0637787 0.0442972 0.0867747 0.0801829 -0.0472559 0.0672788 -0.00203596 0.0386855 0.0187177 0.0352498 0.0740038 -0.043044 -0.0299693 -0.0580343 0.0404702 0.0377418 -0.0634512 0.0174409 -0.00353191 -0.0699164 -0.0232543 0.0614827 -0.045743 0.0798464 -0.042368 0.0287324 0.0279473 -0.0321926 -0.0292767 0.106935 0.0615116 -0.0253689 0.0186255 0.0341438 0.0425349 0.0242929 -0.00725865 0.0281627 -0.0955472 0.0816056 -0.0341003 -0.0555525 0.0916927 0.0131239 0.0264412 0.0273479 -0.0980985 0.0307874 0.0579005 0.0805102 0.0254215 0.00358311 0.0245991 -0.0434117 -0.0335169 -0.036054 0.0152542 -0.066584 0.00572726 0.0184312 0.0320565 0.108664 0.0514226 -0.0310845 -0.028045 -0.0273173 -0.00421516 0.00993013 0.0161097 0.040286 0.0938596 0.0192309 0.028065 0.00397062 0.0165304 -0.0855856 -0.0193988 0.0731963 0.0212011 0.108675 0.0211642 -0.0392744 0.0780209 -0.0663769 -0.0708878 -0.0761733 0.00337099
薄明 0.0541074 -0.0020151 0.0224387 0.0175739 -0.0301789 -0.0665849 -0.0518323 -0.0842707 -0.00091741 -0.0124629 0.0325236 -0.0133427 -0.00457598 0.0403168 0.0136208 0.0102066 -0.0532979 0.00610626 -0.00669056 -0.0555752 0.0841635 0.0549257 -0.0517739 -0.00484854 0.053156 -0.0475451 -0.0187698 0.0123712 -0.0355966 0.0859352 0.0720392 0.0354417 -0.0111175 -0.00542112 0.0512544 -0.0601161 0.0313393 -0.0036343 0.0156729 0.00841298 -0.0108318 -0.0069557 -0.000590059 0.0522673 0.0626973 0.0336153 0.000254053 0.0229958 -0.00667166 -0.0427639 -0.019862 0.047742 0.0171775 0.0225477 -0.047106 0.00998445 0.0532466 0.00965822 -0.0631051 -0.0633816 0.00555199 -0.0115604 -0.0193848 -0.0430076 -0.0282697 -0.0013373 0.0462727 0.0232495 -0.0819749 0.0237224 0.0748282 0.0266903 0.00586885 0.0792077 0.0043595 0.0141571 -0.0831255 -0.0152914 -0.031679 0.025002 -0.00462689 0.0758461 0.0255678 -0.0187612 0.0614111 -0.0543908 0.0715759 0.00595428 -0.0237569 0.0189145 0.00978229 -0.0937667 -0.0586979 0.0191691 -0.0130894 -0.0359433 -0.0554753 -0.0414407 -0.0151993 -0.0774074
身代り 0.154316 0.0222348 0.0587281 0.0453021 0.0235997 -0.0665038 -0.0391515 -0.124848 -0.0686851 0.109173 0.0200347 -0.0262943 0.0260437 0.0253986 0.0687185 -0.0863413 0.032696 -0.0159265 0.0969722 -0.00973546 0.0705907 -0.0651069 -0.0485318 -0.0115681 -0.0466117 -0.112313 -0.0113544 -0.147077 0.00137717 0.0389307 0.109591 -0.0177144 -0.0732781 0.0765131 0.146501 -0.0799593 -0.0481315 0.071897 0.069547 0.00769011 -0.0989651 0.0455711 0.0272736 0.00789493 -0.0390263 0.180837 -0.109749 0.00892305 0.0733752 -0.10796 -0.155941 0.0200304 0.106373 -0.0271819 -0.11616 0.0472853 0.0273275 -0.0438592 0.123631 0.0228989 0.00250945 -0.00413269 -0.0282575 -0.0526616 0.131977 -0.0903216 0.100534 0.00944734 -0.0459333 0.0272807 0.00158036 -0.0649127 0.0272082 0.0824919 -0.0326964 0.0342076 0.00179845 0.00401945 -0.140947 -0.0524245 0.0571038 -0.0797351 0.0170816 -0.0505977 -0.0535996 -0.00358358 0.171544 0.0194299 0.00478097 -0.0504561 -0.109826 0.049837 -0.123081 0.0268804 -0.167454 -0.0903509 0.0495084 -0.00035288 0.0100764 0.00603766
引き出さ 0.0279705 -0.0163475 -0.0123548 -0.0887071 0.0961465 -0.0164985 -0.0854263 -0.0565567 0.0436901 -0.0863708 -0.0434936 -0.00109043 0.0537258 0.0523843 -0.051455 0.0412057 0.0170146 -0.0732034 -0.0908085 -0.0343139 0.00179316 -0.0875598 0.065377 0.041908 0.0154044 0.0371373 -0.0366107 -0.0626663 0.0472822 0.0631665 0.044903 -0.0985797 -0.0945997 -0.0120441 0.0182216 -0.00445099 0.0513096 -0.0258083 0.0742062 -0.0833613 0.0802389 0.059272 0.0897512 -0.0268824 -0.0846914 -0.0264172 0.0750347 0.0746882 -0.0714097 -0.0881589 0.0389074 -0.0511685 0.0543613 0.105523 -0.0551689 -0.0143425 0.0378563 -0.0129834 -0.0400005 -0.0314629 0.0316854 -0.0174559 0.00531631 -0.0420578 0.0784357 0.00593178 0.128213 -0.114535 -0.0439896 0.00352746 0.104266 0.0458313 -0.0318801 -0.00230613 0.0882444 0.0527865 0.0928942 -0.107174 0.0972258 0.0211645 -0.00812127 -0.00480044 0.0224353 -0.00964553 0.0775024 -0.0893462 -0.0452457 -0.115058 -0.0444986 -0.00416837 0.0250448 0.0831124 -0.0665025 -0.00555965 -0.089095 0.0972797 0.0985457 -0.0328909 -0.0193796 -0.0268958
犬 0.0788128 -0.0175228 0.100703 0.0571983 -0.0564822 0.013491 -0.0882281 0.0736383 -0.0832078 0.133989 -0.0119255 0.00375341 0.0754654 -0.100223 0.127243 -0.0382427 0.0993599 0.0887908 0.0579909 0.0754281 -0.0731268 -0.0521915 0.0443466 0.0375647 -0.0559889 -0.0149721 0.104312 0.0702544 0.00726268 0.0544511 -0.100066 -0.0194528 0.0867658 -0.034252 0.087811 -0.0615439 -0.056351 -0.0686109 0.0629555 0.00159174 -0.0908044 0.0300549 -0.0278688 0.0216954 0.0488231 0.126891 -0.0392859 -0.102802 0.0506784 -0.0314688 -0.0521359 0.0496153 0.0115902 0.011567 -0.0926422 0.0131344 -0.109499 0.0232469 0.124505 0.0203647 0.0312796 -0.0757397 0.115486 0.0757096 0.0623744 0.0685485 0.081437 -0.157753 -0.0926611 0.00346149 -0.112604 -0.0948498 -0.0678841 0.0856533 0.0203732 0.027971 0.139095 0.0649159 0.0236072 -0.133995 0.0699774 -0.0483073 -0.0706595 -0.13637 -0.0689093 -0.0455884 0.138607 0.105827 0.0155524 -0.00120398 -0.100636 0.111336 -0.0891684 -0.0092512 0.00142884 -0.12924 -0.013016 0.110072 -0.0638405 0.0249776
自身 -0.0106675 0.0283625 -0.00907432 0.0187781 -0.0380369 0.0292174 -0.0265802 0.0200689 -0.0143867 -0.000440748 0.0606259 0.0590504 -0.0524962 0.0122311 0.0461982 -0.044527 -0.051355 0.0791415 -0.0750794 0.070485 -0.0163625 -0.000657485 -0.00498304 0.0311564 0.0570846 -0.00351059 -0.0137526 0.0441749 0.0137427 0.0224871 -0.0153028 -0.00234071 0.0125068 -0.0274696 -0.0550091 0.0703663 -0.0189353 -0.0269794 0.0329027 -0.0230886 0.00386062 -0.0309609 -0.0131961 0.0732761 -0.0426577 -0.0323116 0.0665265 0.0412857 -0.0874094 0.0178565 -0.0588886 0.00078983 0.0122733 -0.0106296 0.0690362 -0.00363401 0.0402152 0.0554175 0.049178 -0.00448326 0.050007 0.0495288 -0.0381035 -0.00516109 0.00525997 -0.0048693 -0.037374 -0.0593762 -0.032065 0.0645532 0.0372412 0.020375 0.0773111 0.00925016 0.0553852 -0.0488761 -0.0422451 -0.076325 -0.0426537 0.0168733 0.0491428 -0.0258074 -0.0307843 0.0197701 0.0449909 0.0177638 0.0281288 0.0371706 -0.015014 -0.0137745 0.0299008 0.0233357 -0.0222148 -0.0274237 0.0228787 -0.0303704 0.0352481 0.0343721 0.0198817 -0.0199557
降り 0.0703071 0.061354 -0.0147673 0.0597415 -0.0563882 0.116341 0.00758276 -0.101477 0.00120185 -0.067747 -0.0208238 -0.060332 0.0551189 -0.00825479 -0.11134 -0.0140977 0.00758909 0.0123928 -0.014095 0.145706 0.109415 0.0214834 0.154429 0.0396364 -0.0815315 0.0367911 -0.0703862 -0.0225845 0.0162812 -0.053321 0.0128544 -0.0486336 0.00774255 -0.0336572 -0.0867105 0.0398284 -0.0890196 0.0774113 -0.0379303 0.000359647 -0.0275473 -0.00225672 0.0168692 0.0114361 -0.123534 -0.158097 0.216188 0.022005 -0.0101352 -0.0437257 -0.0298098 -0.21833 0.076095 -0.0259025 -0.0384853 0.125528 0.186033 -0.0491106 0.0891389 0.0159921 -0.00215186 0.00915449 0.0385935 0.0370446 -0.0719524 -0.0263907 0.0966032 0.0168836 -0.0858358 -0.130583 0.0179657 -0.0708323 0.100957 -0.0575712 -0.0432826 0.152526 0.0659725 -0.0844022 -0.0890045 -0.0608142 0.110294 -0.106695 0.0729661 -0.0319222 0.002824 0.0595096 -0.0458978 -0.0702431 0.0951075 -0.153333 -0.0747535 0.0632139 -0.089478 0.120556 0.0638233 -0.128737 -0.00507239 -0.0420497 0.0918753 0.0521729
祝宴 0.167806 0.00272615 0.0688303 0.0437837 -0.0366244 -0.0189919 -0.0757457 0.0529091 -0.100057 0.00881339 -0.0758001 0.0673672 -0.0639926 -0.0206129 -0.0106059 -0.200997 -0.00505822 0.0786547 0.0270707 -0.163064 -0.0709934 -0.0524294 -0.0989992 -0.184198 0.0049709 -0.11145 -0.114591 -0.00128049 -0.140813 0.0503909 -0.0302028 -0.0954089 -0.0228598 0.0350901 0.0888891 -0.211742 0.065809 0.023838 0.0344763 -0.0471857 -0.0976134 0.0457174 -0.157775 -0.0264037 0.0268391 0.194969 -0.0973602 0.0170569 0.000840194 -0.0342809 -0.0792433 0.10373 -0.0161851 0.0421842 0.0235695 -0.111449 -0.0106541 0.034999 -0.054153 0.0265797 0.0250107 -0.0654895 -0.0337187 0.0329096 0.0303687 -0.0295717 0.076234 0.127643 0.0196264 0.108137 0.0762074 -0.0610913 -0.00762807 0.260956 -0.038658 -0.121109 -0.0223853 -0.00834639 -0.0142645 -0.09821 0.0626149 0.010062 0.0355714 0.00852688 -0.0141432 -0.156213 0.2515 0.187644 0.021435 0.245772 -0.00392069 -0.0809364 -0.173997 0.00122008 -0.114233 0.0513527 0.128522 0.16023 -0.111552 -0.0889225
ボランティア 0.0612194 0.00796897 0.0252237 -0.0194686 0.0480256 -0.0226153 -0.0532521 -0.00156314 0.0122662 0.0614709 -0.00115822 -0.061481 -0.00902347 0.0656592 0.0682547 0.0124046 -0.0145623 0.0159608 0.0391854 0.0203812 -0.00746738 -0.0472558 -0.014171 0.0511402 0.00430366 -0.0924183 -0.0389561 -0.048449 0.021796 -0.0120955 -0.00134715 -0.0688506 -0.0657377 0.0937374 -0.0285385 0.0606411 -0.0621832 0.074526 0.0800918 -0.0109324 -0.0659226 0.0805748 -0.0347511 -0.022676 0.0010084 -0.0431436 -0.0217806 -0.0220708 -0.01743 0.0433477 -0.0503064 -0.0142449 -0.0732415 0.0100579 -0.0777552 0.0126339 0.0549265 0.027713 -0.0377308 -0.0898064 -0.0354598 -0.0330073 -0.0571936 -0.0389907 0.0475072 -0.0287595 0.00592848 0.0400015 -0.0610043 0.0602235 0.0514324 -0.0232049 0.0122017 -0.0376247 -0.0449231 0.0121889 -0.0460306 0.0190119 0.0202022 -0.0446298 0.0156928 -0.0504791 -0.00952433 -0.0316892 -0.0245622 -0.0892951 0.0693833 0.0800719 0.0529558 0.0624047 0.0333526 0.00673537 -0.0311503 -0.0471791 -0.0813637 -0.0159662 0.0272801 -0.00757826 -0.0442461 -0.0167119
見つめ -0.00431722 -0.0619389 -0.0830597 -0.126984 0.0669975 0.0717241 -0.0618966 -0.187387 0.0560843 -0.0203497 0.144018 -0.0250137 0.144893 0.0504031 0.0685924 0.0671767 0.110777 -0.146572 -0.107252 0.0783691 0.1011 -0.0823934 -0.0130707 0.0922104 -0.0140023 0.043373 -0.0196464 -0.109373 0.0719315 -0.0396184 0.0622669 -0.115599 -0.0494795 0.098197 -0.163526 0.0940507 -0.0276008 0.0739113 -0.0695356 -0.152247 0.171987 0.0889485 0.189599 -0.0932826 -0.0532154 -0.0657121 0.0673212 0.185922 -0.139859 -0.0411207 0.0892154 -0.101269 0.132777 0.130805 0.0167461 0.182285 0.141282 -0.0582947 0.101166 0.0346578 -0.0798977 0.00568281 0.131761 -0.0247048 -0.0416836 -0.110582 0.084567 -0.0223093 -0.00812035 0.14105 0.148511 0.0546238 -0.0174267 -0.196534 0.0318035 0.0584885 -0.0870502 -0.140277 -0.0803851 0.0112173 0.0352363 0.107863 0.0158152 0.0949625 0.072563 0.0157944 -0.176085 -0.147857 0.0181627 -0.217612 -0.0219533 0.0692252 -0.0196674 0.0295497 -0.0936635 -0.153822 0.0934338 -0.162045 -0.0649766 -0.0683345
言い張っ 0.0136206 -0.0452195 -0.0319279 0.0496185 0.0183597 -0.0245336 -0.0156458 -0.00147574 -0.039872 -0.0483356 0.0496738 0.0132893 0.0244835 -0.0500932 -0.0530476 0.0188984 0.00960128 -0.0465267 -0.0218583 0.0593399 0.052029 0.0217236 -0.0068759 -0.0577104 -0.0300266 -0.0332878 0.0159643 0.0155046 -0.016458 -0.0738903 -0.0319322 -0.0151202 0.0489502 -0.0662645 -0.0640082 -0.0378393 -0.0103055 0.0259605 0.0196073 0.0557252 0.036724 0.0232413 0.0777672 0.0140908 0.0366245 -0.0338037 0.00207407 0.0551338 0.0207857 -0.0323969 0.0521272 -0.0231022 0.0308393 -0.0211439 0.0724535 -0.0636218 -0.0227616 0.0671314 -0.0533006 -0.0123919 0.0210764 0.00729365 0.00902167 -0.0296348 -0.0226877 -0.035668 -0.0390658 0.0452898 0.0527203 -0.0684836 -0.00891636 0.030704 0.0305851 -0.00789041 0.0237933 0.0270997 -0.00201559 -0.0726387 -0.0398185 -0.0262053 -0.0182421 -0.0465071 0.0147884 0.00500456 0.0475347 -0.0382169 -0.0403184 -0.0334421 -0.0519824 -0.0286615 0.0111649 0.0480398 0.0040271 0.0153423 -0.0133976 0.0203858 0.00728156 -0.0456099 0.0181757 0.0114533
市 0.186342 -0.123457 0.0598294 -0.292528 0.120675 0.161946 -0.236842 0.0533884 0.0597006 -0.0327907 -0.153297 0.154235 -0.0554025 -0.0805103 -0.0626156 -0.191934 -0.0793197 -0.211386 0.0517294 -0.0729182 -0.0616228 -0.124789 0.0236553 -0.202103 0.106206 -0.10753 -0.281421 -0.0721318 -0.145873 0.071345 0.0987005 0.00521561 -0.14399 0.173966 0.294394 -0.259315 0.198371 0.116207 0.112543 -0.102771 -0.00360236 -0.0224392 0.067858 0.0641399 -0.00491238 0.25123 0.00112177 0.0417369 -0.0389219 -0.0351336 -0.0980658 -0.0129473 0.133574 0.181568 -0.168103 -0.0313789 0.113614 0.233562 -0.0809045 -0.0770547 -0.0320267 0.0150842 -0.181952 -0.010712 0.0593166 0.0708508 0.0793688 -0.08147 -0.0945803 0.110761 0.143776 -0.111327 -0.000756304 0.17414 0.0194264 -0.179287 0.0381388 0.0278609 0.259507 0.0209179 0.0912104 0.00471649 0.0871096 -0.0397253 0.191192 -0.139244 0.297223 0.0230237 -0.0956057 0.127226 0.225829 0.240519 -0.0770673 0.015615 -0.162295 0.0302486 0.0797162 0.064252 0.08754 0.0319136
渦巻き 0.0131811 0.0766288 0.0730041 -0.0155156 -0.115015 0.0402834 -0.0417016 0.102202 0.0488412 0.0112961 -0.0338158 0.0502147 -0.0388399 -0.0776316 0.0338141 -0.0207528 -0.0519467 0.0480462 0.0514846 -0.00930543 -0.136945 0.032138 -0.0374192 -0.0681453 0.0918074 0.0156635 0.111204 0.0824234 0.0230754 0.00398879 -0.0757352 0.00234002 0.0628162 -0.00180249 -0.0338437 -0.0782335 0.0102048 -0.0397186 -0.0659907 -0.0156771 -0.0455413 -0.0264181 -0.0161217 0.0815668 0.0162484 0.114434 -0.00999244 -0.0684405 0.0243513 -0.00631824 0.00701527 0.0238669 -0.087759 -0.0143969 0.101269 -0.0231142 -0.082669 0.0704568 -0.097544 0.0798395 0.0844644 0.0733054 0.0499644 0.0844745 -0.0803906 0.0775407 -0.00166661 -0.0198068 0.0284214 -0.00498287 -0.0337187 0.034513 0.0788165 0.0576715 0.0574971 -0.0705702 -0.0748105 0.0631878 0.123577 0.060427 -0.00720226 0.0324459 -0.0950155 -0.110249 -0.0008266 -0.0283667 0.100877 0.0436733 0.0140334 0.104512 0.0019123 -0.0806904 0.0396566 0.0357067 -0.0112594 0.00742067 -0.0251169 0.0887775 0.0163081 0.0431014
指定 -0.0121047 0.049675 -0.0265684 -0.000713742 0.0596686 -0.0427256 0.0424221 0.00592563 -0.000393258 -0.0555898 0.00747103 -0.0232787 0.0242178 -0.0142633 -0.00481762 -0.0635231 0.00944134 -0.0343151 0.0549741 0.031842 0.0480602 0.0590868 -0.0563872 0.0210808 0.0194104 0.0519424 0.0113547 0.013745 0.00395282 -0.0365955 0.00805935 0.0117576 -0.0391523 -0.0239556 0.0370339 -0.00356016 -0.0568672 0.0626776 -0.0308928 0.046285 0.0132265 -0.0545609 -0.0494604 0.0656193 0.0333491 -0.0289235 -0.00691341 0.072829 0.00754731 0.0520302 -0.0351138 -0.0416722 -0.00065565 -0.050719 -0.00481149 0.0246085 -0.00040271 -0.0287485 -0.0161298 0.0352212 0.0359989 0.0610583 0.0468907 -0.0254961 0.00641161 -0.00279683 -0.0245007 -0.0168962 0.0505143 -0.00342716 -0.00328063 0.0539923 -0.00607605 -0.0291785 0.0416901 0.0153886 -0.0151766 -0.0388445 0.0563293 0.00507905 0.0298412 0.00504764 0.0137952 0.0462454 0.0305223 -0.00431155 -0.0415335 0.00934539 0.0307188 0.0199295 0.0371074 -0.0583015 0.025946 0.0392925 -0.00985466 0.018694 -0.0135286 0.0374804 0.0190279 -0.0479651
面白い 0.00848091 0.00881903 0.0686272 0.0646591 0.00269866 0.0102371 0.0359278 0.00224131 0.0531757 0.044951 0.0432276 -0.0309182 0.0346509 0.0370241 -0.031372 -0.0374006 -0.0235628 -0.00269448 0.0588188 0.00564352 -0.00922826 -0.0324359 -0.0693485 -0.0300511 -0.0502475 0.0062305 0.0165717 -0.0228966 -0.0724855 -0.0333036 -0.0208798 0.0514975 -0.0558554 0.0591345 -0.00427989 0.0108313 -0.0556607 -0.0411965 0.0552082 0.0285874 0.0508202 0.00755455 -0.052297 -0.0295496 -0.0582242 0.0398716 0.00107458 -0.0214313 0.0578435 -0.049855 0.0217614 -0.0167554 0.072062 0.0136329 -0.0526108 -0.020418 0.06927 0.0366845 -0.0507579 0.0361034 -0.0643224 0.0323814 -0.077029 -0.0355692 0.00556582 0.0276424 -0.0517596 -0.0255249 0.0258592 0.0429809 0.0191319 -0.0261796 -0.0505444 -0.0400682 0.0464233 0.00438527 -0.0212249 -0.0478729 0.00240427 -0.0156094 -0.0035561 0.0422147 0.0361959 -0.0252724 0.0215595 0.0444405 0.024206 -0.00609834 0.0146993 -0.0451334 -0.0432798 -0.0420758 0.000458672 -0.0362354 -0.0654436 -0.0021497 0.0284418 0.00585186 -0.00720612 0.0425277
汗 0.0283514 0.0900366 0.0063906 0.071776 -0.0492987 0.0153837 0.107514 -0.0113195 -0.0296913 -0.0068605 0.0449623 0.0127968 -0.0917925 -0.0559908 -0.0416916 0.0344073 -0.0410216 -0.0159475 0.0128255 0.0757859 0.0119827 -0.0467344 -0.100997 -0.081928 -0.0751325 -0.00575788 0.0162527 -0.104266 0.064917 0.0180044 0.0230227 0.0637447 -0.0182672 -0.0512253 0.026111 0.0969056 -0.0745495 -0.0129872 -0.0417682 0.0518669 0.00422262 -0.0566965 0.0963786 0.0210652 -0.0578716 0.0179184 0.0490273 -0.0134192 0.0216397 0.0139457 -0.0603878 0.0289991 0.0856831 -0.0300165 -0.029625 -0.00935475 0.0906176 0.0713595 0.0477883 -0.00268444 0.0357604 -0.0472496 -0.0234119 -0.0106278 0.0248275 0.00957884 0.0278853 -0.0144375 0.0186364 -0.0394923 0.0353649 -0.0319001 0.0575634 0.0390386 -0.0481082 0.0994092 0.00787354 -0.123745 -0.069697 0.0477706 -0.050045 0.0299122 0.0616512 0.0331235 0.036189 0.010862 0.0598811 -0.026885 -0.0439946 -0.0069948 0.0142226 0.0405814 0.0147212 0.0527588 0.0175674 0.0339444 -0.0153534 -0.0611567 0.0843389 0.0453165
最後 0.130774 0.0683889 0.0984286 -0.0260783 -0.0426194 -0.0643807 -0.166653 -0.0612141 0.0994722 0.0780614 -0.0358262 0.122085 -0.039269 0.0699616 0.0379585 -0.0804895 0.0619435 -0.0410765 -0.019229 0.0540407 0.118184 0.156217 -0.158009 0.0518263 -0.023473 -0.110488 -0.0433522 -0.0112296 -0.00525816 0.0369601 0.0808199 0.0042411 -0.115466 0.0450762 -0.0319195 -0.0169322 -0.00794955 0.0969011 0.0364472 -0.0341755 -0.0690674 0.0166395 0.0676947 0.0638937 0.00879833 0.109042 -0.0173293 0.0829582 -0.0450492 -0.078859 -0.0335656 -0.0282457 -0.0467308 0.0303734 -0.012806 0.0449655 0.0265369 -0.00741797 0.0915844 0.00859821 -0.0674271 0.0190316 0.016342 -0.0504825 0.0238758 -0.0931179 -0.00872973 0.0775768 -0.161957 0.0595411 0.00889005 -0.0397428 0.15203 -0.00653297 0.190961 -0.0302029 -0.0560512 -0.0760711 -0.087801 -0.0464382 0.00345397 0.00475066 0.0621694 0.0772415 -0.0288467 -0.09807 0.0333446 -0.0122608 0.033904 0.0502738 -0.0350364 0.0103792 -0.171917 0.110671 -0.05365 -0.108711 0.0417713 0.0278095 -0.0527418 -0.0947174
嘘つき -0.0440063 -0.0203138 -0.0569641 0.0157488 -0.0690212 -0.0354718 -0.0470281 -0.0441932 0.00681095 0.0209529 -0.0323219 -0.0667657 -0.0355347 -0.0612716 -0.0493855 0.0420975 -0.018374 0.0189972 -0.0719178 -0.0687069 -0.0434883 -0.00126212 -0.0393173 0.0319193 0.0534667 0.0454363 -0.0520908 0.0514921 -0.0322857 0.00204717 -0.0162058 -0.01755 -0.0377115 -0.033036 -0.0151854 -0.0133791 0.00807172 -0.0506229 -0.0054677 -0.0221048 0.0227002 0.0133298 0.0800689 -0.0231878 0.0323538 -0.00676477 -0.039903 -0.00429064 -0.017148 -0.0402277 -0.0428777 -0.0873135 0.0131712 0.0397304 -0.0448481 -0.00689031 -0.0585385 0.0806875 -0.0381737 0.0256333 0.0439563 -0.00093659 -0.0590326 0.0644082 -0.0372358 -0.045366 0.0282247 -0.0533195 -0.0146543 -0.00841478 0.0599778 0.0831624 -0.0457897 -0.00173963 0.032918 0.0150658 0.0259338 0.000238332 -0.0376433 -0.0583018 0.0548056 -0.0442551 0.0179459 -0.0293084 0.0577593 -0.0673759 0.0478121 -0.089171 -0.020815 -0.0554207 -0.0386071 0.0169125 -0.0419249 -0.0290862 -0.0372714 -0.022569 0.0507065 0.0165302 -0.0362766 -0.0509834
災難 0.0316383 0.0142572 0.0297503 -0.0720705 0.0022747 0.0537747 -0.095176 0.0619788 0.0462623 0.0770646 0.0251071 -0.0130981 0.0232505 0.0386514 0.0353191 -0.049421 -0.00796383 0.0963049 -0.0126905 0.0316501 0.0610158 0.011227 0.118377 0.0873603 0.0339863 -0.0501326 0.0126175 0.0246349 0.0240995 0.0834956 -0.0380289 -0.0864287 -0.0281136 0.0395766 0.0166723 -0.0999289 0.0088271 -0.0524131 0.0464763 -0.0581214 -0.101076 0.00899415 -0.022462 0.0325821 0.0777652 -0.056829 -0.0226969 -0.0354852 -0.0109711 0.0189757 0.034334 0.0778695 -0.011822 -0.0637886 -0.0182854 0.072369 -0.0516697 -0.0499478 0.0570761 -0.0264789 -0.0684999 0.0123149 0.0636972 -0.00207425 -0.0972105 -0.0245806 0.022572 0.04825 -0.0481538 -0.00189261 0.0138115 0.00616089 -0.0635256 0.0904319 0.0165988 0.0271553 0.00107839 0.0168186 -0.0190645 -0.0774912 0.0184988 -0.0976907 -0.0451518 0.0489291 -0.037365 0.0366159 0.111111 -0.0340195 0.028607 -0.0657558 -0.111689 0.00170527 0.0225552 -0.0147614 0.0452193 -0.0487018 -0.0286405 0.0893101 0.0295602 -0.0789214
席 0.117292 0.00764563 0.0112592 0.0477435 -0.128696 0.0146654 -0.0635576 -0.0670728 -0.00808613 0.0490419 -0.0706349 -0.0346676 0.00587984 0.00665239 -0.0402741 -0.0637518 -0.123611 0.0433535 0.15021 -0.00221096 0.0647985 0.0590943 -0.0637834 -0.152706 -0.0905909 -0.0186199 -0.0752245 -0.0967234 -0.0163479 -0.0189127 0.0166505 0.000345761 0.0313944 0.0150042 0.105544 -0.0602427 -0.0324726 0.0666833 -0.00187742 -0.00779913 -0.0780711 0.00868408 0.0964233 -0.0456709 -0.128697 0.177382 -0.077787 0.0979841 0.0553058 -0.108649 -0.0932903 -0.020596 0.0782051 -0.0619146 -0.0141192 0.0982225 0.0549161 0.119737 0.0428585 0.0857599 -0.0223671 -0.119754 -0.0450421 0.078565 0.0320426 -0.0117756 0.0410782 -0.00160795 -0.0179356 -0.00759628 0.0745576 -0.0969739 0.0788444 0.078246 -0.00325813 0.00315914 0.0349681 -0.136393 0.00681152 -0.0958947 0.00864707 -0.0229073 0.0140442 -0.131899 -0.0302997 -0.0581156 0.167689 0.0606091 -0.0870126 0.0207053 -0.141936 -0.0277689 -0.168296 0.0694997 -0.103536 -0.0692972 -0.0860311 -0.0296273 -0.0153967 -0.00614548
